1242 16
THEORY-AND-ALGORITHMS 2.3426862 2.4729033 2.1372077 -1.0380965 -3.2230277 -1.137481 -5.746112 3.6200776 -2.0955517 9.795866 1.2764776 1.2082089 1.5784167 6.7235217 -4.3464704 8.75294
SYSTEMS-AND-NETWORKING -2.2205942 -7.9998355 3.6733649 -0.17337851 -1.0674206 -0.9631985 -7.308224 -3.3635547 7.3864794 4.614885 0.38973287 -1.4194317 -8.134374 2.7832735 2.7235897 -5.2621922
COMPUTERS-AND-EDUCATION -4.0913334 -4.2107463 -0.9864012 -0.7813868 1.675969 -11.380629 0.32632276 5.8670316 -3.136496 -1.388502 -6.4419765 -5.1574807 0.7042479 7.5266128 3.2230554 -3.231332
SCIENTIFIC-COMPUTING -3.8095028 3.662741 -6.7440314 6.4630685 -4.9518175 -2.1691344 -2.0218773 -9.861017 -8.319517 -0.7197793 -1.6440667 1.5929064 0.57264805 2.6500404 -2.161983 -0.3983362
ARCHITECTURE,-COMPILERS,-AND-PARALLEL-COMPUTING -5.3120837 0.81184393 -1.6548464 -5.601163 -1.2972428 -4.0687275 7.975277 -4.357653 0.70752996 -2.0980337 1.2079917 -6.021664 -3.8590384 9.563051 -4.292874 4.2151995
DATA-AND-INFORMATION-SYSTEMS 5.263816 -3.4489095 -5.946863 -1.6551578 -4.64835 -11.342383 0.069539756 -6.5979342 1.8544844 -2.0318518 5.697927 1.1479115 4.118221 3.3155036 2.8943076 5.5429335
PROGRAMMING-LANGUAGES,-FORMAL-METHODS,-AND-SOFTWARE-ENGINEERING 1.2166572 -5.091663 -1.0752847 -6.272456 -4.2579784 -2.2833529 -2.880609 5.757391 0.77896816 -8.660331 4.0346274 6.4795074 3.723999 9.311461 -5.7900167 2.1819248
ARTIFICIAL-INTELLIGENCE 0.8319501 -0.7043784 4.6010895 -3.592359 6.9697623 -6.268439 -1.8785027 -2.5611033 -4.4862685 -4.722183 -1.7473121 1.2544167 -6.8616486 -7.93004 -8.220155 2.9777994
INTERACTIVE-COMPUTING -8.665687 -2.6156204 -8.457639 -5.1280127 -10.725818 -4.1115975 1.6402382 1.9590524 -2.7872927 -0.84040576 -5.441925 2.2208545 -0.9089759 0.35828903 2.9278343 1.5215267
SECURITY-AND-PRIVACY 5.019657 -9.998356 0.6108878 3.712835 -3.8023906 4.118926 7.524603 -0.88714087 -0.15373363 3.8092632 -3.4019432 -6.291305 2.1542687 -6.1007833 -4.615446 -4.5131106
BIOINFORMATICS-AND-COMPUTATIONAL-BIOLOGY -6.739141 9.34731 1.8739539 -2.6241224 7.424012 -6.8971324 -0.8574822 -1.5411394 -3.6052895 -2.2737713 5.941643 6.147869 1.0237482 -7.878054 1.0892785 5.7374268
prerequisite 0.89389616 -1.6786983 -2.524835 -1.6997229 6.120004 -0.40425193 0.033694226 -0.24691597 5.1624036 -2.9563775 0.87656677 -1.1312999 2.9202647 1.1534411 8.327882 2.3632715
design 5.501916 -2.520529 -5.792545 -6.6352406 10.389279 -2.2026603 3.308359 4.78817 5.0048814 -0.36372393 7.0198655 0.9524629 -1.4024879 5.259438 7.1748185 1.310767
analysis -2.262665 -1.0584861 -5.7030697 0.6829225 -0.023375673 12.548824 6.8081245 10.518354 2.1151724 -0.24930647 7.0742545 11.399426 3.8294046 3.3292804 9.999346 -7.3827453
implementation 6.445929 -9.795547 3.8651977 1.6799662 0.99571747 -9.050988 -2.2000144 -0.8789935 1.1964874 -5.8917036 -4.3868713 6.919673 -7.975626 7.1994114 2.408634 -1.9567688
topics -8.016023 -5.886938 -7.8420954 0.7080848 15.048576 -4.54395 -0.18770579 4.14116 3.1679626 0.57897335 -2.2605324 -10.563679 4.161622 0.7153413 -2.930858 5.2617025
methods 2.52186 0.103141926 9.728551 -6.222104 -2.9213269 -12.627856 2.631143 4.473586 -3.5993009 -9.763668 -3.082207 3.1464329 0.8284559 6.8404303 3.1826892 -2.6397629
applications 4.2903643 -3.6433315 3.4362226 9.441691 -0.3978103 -6.00596 0.936379 0.36164224 1.2972183 0.571349 4.233205 12.495015 -0.8169019 -1.8645096 10.48728 -0.22363126
security -0.93193483 -6.588318 -3.302177 -3.9696171 5.224958 1.271145 2.9134977 2.1440055 11.323296 0.8308206 6.959874 -4.349759 -2.2105467 -0.64645666 12.650618 1.1366112
computer-science 7.299618 4.3218207 5.2284026 5.675619 1.7866782 -1.7508173 -0.009433353 4.1593614 -8.556184 4.768102 -2.5784361 -7.9202695 3.150016 -1.5505389 13.857445 -2.001307
theory -0.0065422356 -1.0787514 0.10732222 -6.159846 -1.2953415 -9.956503 3.2766993 4.4897065 2.6701791 -7.7473526 10.754501 6.6467643 1.0277032 -5.165917 8.407156 1.3124743
advanced-concepts -1.949721 2.3379521 2.7011898 1.7454758 5.155319 -0.59877044 5.5769024 2.2841082 4.4543967 8.23574 7.8354588 -7.888317 1.9424824 -3.3815575 9.475699 3.921438
algorithms 1.6976691 -1.6089454 9.495913 5.6491437 -0.52170247 -5.7047534 -1.2945673 1.634948 2.4678957 2.5998275 -0.9155693 2.4025178 -1.8737302 -1.5221709 7.691127 12.345157
4-graduate-hours -2.3751712 9.332289 -3.1191049 -7.4697676 0.42711788 5.0856175 11.251171 2.8291075 -1.0759735 0.6203556 4.2173405 6.1907334 7.9488072 1.3629402 11.3923 -10.382386
3-undergraduate-hours 1.645209 8.518328 5.1593165 -5.895299 -0.9707842 8.56698 11.743044 -1.2997217 -0.6128423 -9.538546 2.0265822 6.327791 6.2889476 -6.7727237 6.006512 7.0033917
3 -5.4010606 8.293737 6.25042 -9.541563 2.348791 -0.44476402 -6.613715 -5.888647 6.2112927 -3.802264 1.375246 -0.25994223 -0.6091539 6.3114443 8.985081 3.4042451
privacy 3.787429 -9.606064 0.3818902 0.35917574 0.92549753 -9.809769 6.59375 5.918988 0.20328419 1.4095466 6.8614616 -0.8710299 -6.8885245 -7.4845977 -0.9015038 1.4771912
programming 0.7471081 -3.2976189 -10.213163 -7.193281 12.513593 -0.24732915 3.21239 6.5989437 -2.6266782 -4.1763787 -1.1375836 0.015328707 -4.845191 2.5181577 -1.7820631 2.1632206
models 1.6659265 2.849098 2.6555536 4.9592996 -0.9626873 3.8513188 -2.3569582 4.8092256 -4.416275 3.7498941 11.693664 -10.458988 -2.5440555 5.027003 5.2809224 2.2048078
techniques 3.8904822 -3.593435 -4.564212 -3.634722 5.432137 -0.08776007 1.2576102 -2.7712507 4.7029896 -3.0427096 1.8798152 -1.0456604 1.570511 2.237059 2.5693543 0.8604137
overview 0.51022166 -7.166711 -4.755133 4.7758336 7.00826 -5.615258 -8.023494 5.732129 -2.152451 -0.83694154 5.4888225 -5.335044 -0.07840027 0.81356984 -1.3516649 1.9170247
field 4.4649825 -7.044482 -2.585079 4.8129864 2.4559734 -6.0906644 3.7599638 6.1347504 -1.8578191 1.1982324 0.5821655 -3.3134682 -5.986056 2.4269748 7.677462 6.296452
systems 5.619195 2.4337132 -4.7723956 -7.202003 0.9665534 -4.070433 1.7962619 -0.5748853 -2.4361153 -4.924181 4.009814 -0.035743378 7.760137 -1.0660586 8.283385 -8.692817
non 2.8708913 -2.0051317 0.34170583 -1.8173563 2.2993689 0.9945861 2.0932603 12.01369 0.48935845 2.3357823 -1.5960809 -1.1921242 9.632422 0.40923595 9.228581 -2.1886976
intended 9.032516 -1.3694397 -5.100135 -4.989505 7.5752945 1.0008206 -3.452123 5.277748 -6.958235 -4.251847 -6.6872597 0.95884365 -0.45091963 4.45686 4.22383 -3.2619
functions 6.106083 4.2129188 -7.1431513 0.96229297 5.5960426 6.54497 1.8748819 1.830223 -9.882637 -4.176231 -0.25169504 2.1169715 -1.7739563 5.5845284 5.1215005 -0.13714029
concepts 4.670068 -4.6783686 -4.4690857 0.2279851 -0.5358352 -4.1857076 5.4862237 -1.3769131 -5.956069 -6.9513006 -1.3010739 -0.061994784 -10.917366 9.905886 4.93938 -4.887645
new -6.2614326 5.3439837 5.715046 -0.351254 0.97746134 1.6591032 1.9477825 9.039275 -4.7828813 -3.0746176 3.092553 -7.7893515 5.5271907 3.898256 -0.775555 4.0693536
course 3.1952753 -4.3750567 -0.6976785 0.042208143 6.599503 2.3836472 5.1112657 1.5547973 2.4287887 -3.3403914 -9.974936 0.9838422 1.3640081 5.957442 7.523283 1.6507906
engineering 6.007764 -6.644539 1.9176947 1.4447166 -4.058253 5.5911083 4.8747396 2.6104708 -3.3427835 -7.5303445 -7.8027782 2.722347 -0.38641918 8.357139 1.7697786 -5.720999
knowledge -1.0990518 -0.50548846 6.6965566 -6.4017453 4.7942004 5.0849013 8.697592 8.701677 1.4478352 -3.7930694 -0.9945534 -8.321841 2.0241444 -1.9959781 2.5453389 1.4080955
graphs 4.0526896 2.7297757 -3.1420984 -5.2898345 1.5504272 -2.6863153 -3.9909925 2.3477652 -1.6301721 6.4173017 -5.8859434 3.5663283 1.6214023 2.7498777 7.6804457 4.6741643
basics -0.78649247 -5.922802 -1.5520388 -3.1464272 7.5913615 5.6930256 4.1516447 4.4336176 10.372073 4.3540854 0.604792 1.102173 8.060632 2.5293772 -1.7860839 1.9359399
structure 6.419225 0.1710521 4.401164 -5.3003383 6.321213 2.1026845 2.807561 3.5664234 3.57434 1.1514884 8.859393 6.578418 -3.356604 -1.2197237 -0.08901648 3.262221
computer-vision 1.9004726 -2.8652956 0.20990567 3.2979965 -0.65331316 -1.0725583 2.710839 -1.513416 -0.9891723 -0.32431215 -9.686275 8.412869 1.482663 -9.567222 4.166247 10.986073
syntax 2.3402686 -4.32034 -4.6669316 -8.37677 6.483905 1.453469 1.8669839 2.782965 2.8047378 -3.9472637 3.9769163 3.6979594 -5.340144 -0.26045066 -4.0605307 5.570842
development -3.9932547 -2.9295073 -2.4837193 -4.609785 0.8926835 2.179948 -1.5168221 -1.1490685 6.279537 -0.64175326 1.5037794 -1.4562063 3.3845468 7.0000324 -0.57409877 -3.5512328
partial-differential-equations -4.857753 -0.19391361 -5.7098045 1.6380327 -7.960309 3.028105 -6.525455 -1.9302542 -4.1119432 -3.2393072 4.5300326 4.609968 3.358447 8.457896 -4.0461097 -5.9951553
real 2.137067 -8.516199 -3.9207635 3.63596 -1.2726817 -4.8467717 -1.7593776 -7.5306535 3.3487422 2.9627461 8.518577 0.68948036 -4.7973604 4.041191 -3.692734 -5.716359
network-security 0.82215583 2.1034613 0.09838629 -3.0379512 -6.918346 -1.6501915 1.8345513 -5.6416354 -1.9929203 8.119073 8.881243 -7.7563567 5.678483 -5.152946 -7.6167345 -2.806545
computing 4.067287 3.3355443 -3.2567956 -6.6057477 6.127723 -4.8863926 -1.198936 3.0635028 -5.567278 -6.7533555 -0.90388185 4.903784 -1.7405362 5.003176 6.4872828 -1.5716296
required 5.929361 0.53894675 1.9905503 2.2083545 4.448389 -7.355234 4.3461337 1.3311272 -1.432918 0.029416423 -1.672466 0.84015673 7.803397 3.190954 6.8800907 2.2633386
fundamental-principles -3.637609 -4.14418 -1.7429425 -3.4544942 -0.02764241 1.3254154 0.50469923 2.2892656 -1.8802122 -9.610248 1.5735153 -0.50462097 3.711306 -1.430995 -4.806913 -8.621897
emphasis 1.0940065 2.8230197 -4.987859 -3.2439086 3.3685737 -2.1915143 -4.7952204 1.9030223 -4.572983 -8.666673 7.8359637 -2.5794318 2.201651 5.031958 4.213845 -1.9531972
research -1.9636033 -8.165657 -1.0178188 2.3260996 -0.5333093 -2.3642476 8.998761 8.8643465 -0.88949734 -2.3384767 -6.6065674 6.111864 -1.3506447 1.7997419 0.2616862 3.5367904
see-class-schedule -5.1422415 -3.26205 -6.500559 3.530594 3.5178316 -0.2555476 3.5566623 3.4755807 -0.45859846 1.251246 4.33745 -1.4403986 -1.2316582 6.1056767 -2.7832217 0.65844524
departmental-course-information -6.4179463 -2.535609 -5.678635 5.2242675 1.4340733 1.5575917 4.3940725 3.7127864 -0.86119246 0.37798795 4.256029 -1.9471849 0.41008008 7.5899644 -1.398445 0.4540573
computer-science-intended -4.460582 -2.891191 -5.0521083 6.1921196 1.2332698 3.7811773 5.247856 3.7822087 -1.829782 0.36084005 2.170168 -3.6445386 1.212261 8.049736 -0.6398596 -0.07680043
subject-offerings -2.5189443 -3.508543 -4.4747853 4.9835887 1.5721952 4.8338027 7.942166 4.460938 -2.236693 -0.08005567 -0.5805684 -5.9123797 2.2706442 7.560575 -0.7253045 0.80633104
existing-curriculum -1.9987644 -2.7485716 -2.7623637 2.8860693 1.0288703 3.741651 7.7352757 5.783444 -3.5524874 -2.5238705 0.31126028 -6.708472 2.0085433 6.693066 -1.8486042 2.1549096
developing-areas -1.4472001 -1.5584037 0.27389032 1.5248506 -1.0707843 1.9287786 5.3969975 7.5211635 -3.9316504 -3.3343537 3.8648808 -7.3232265 3.1726706 4.6975355 -3.612284 3.8426867
prerequisites -2.1303918 0.7883484 4.0447793 -0.66926736 0.22276245 2.4537115 5.566689 6.4421763 -4.5274396 -3.937859 0.7523647 -8.256767 3.3532028 1.2587926 -4.6649733 3.8124917
augment -6.4220734 1.502033 5.8524666 -2.783184 1.7955128 0.8991413 3.5027754 5.919069 -1.3955239 -6.449112 3.3318515 -7.417893 0.9846404 -2.6175182 -1.5496138 3.599243
others 3.6673434 0.50041515 0.45510983 -4.179901 2.9862425 -0.752553 -4.139841 4.2058105 0.8556079 -2.034637 0.106373265 4.465334 -3.9141214 4.1694107 11.1535015 4.0199585
turing-machines 0.11170246 8.1613245 4.241188 -0.0194012 -0.47646758 8.842328 -8.574724 -2.6695108 -4.223007 2.888686 2.4016206 4.900678 -0.3665626 -2.2582612 -0.6687236 3.9953096
time 0.72892475 -1.8428738 -3.3675623 -4.9641204 9.511045 6.3893547 -1.5190097 -3.9869099 4.9571905 4.6121616 4.754684 0.4514835 -6.456995 0.14041607 -1.7276905 -4.3216906
formal-models 0.6321482 -3.3137097 -3.2279394 -4.3269615 1.7498186 2.0567071 -9.972837 2.4206405 -1.8468604 -6.645938 -5.107098 2.5619683 -2.4989786 -4.183881 3.454368 6.5716405
advanced-topics -4.778261 1.532693 3.121352 -2.1686096 5.4273486 0.34397915 0.19588058 3.7061675 0.23032871 5.085463 -11.536879 3.7196004 0.5613864 3.747466 -0.020575583 5.8581624
computer 0.8336245 -1.3501068 -5.9109964 -5.150789 6.438312 2.9401393 2.2360334 4.045513 -1.1384867 3.0356607 -7.15031 -1.0172051 6.729882 -7.2486434 1.7858598 1.4508773
machine-learning 2.0524786 -3.0029564 -0.7537266 2.1587834 0.4877133 0.9963232 3.0515501 -6.414483 1.338399 5.4013505 -6.450843 7.2896547 -4.3587804 -6.4978175 0.6626563 7.8659487
parsing 3.6793242 -6.749649 -1.3576407 -2.8596845 3.963896 3.028068 2.5296514 5.0505157 4.8007345 -3.153455 6.4157705 9.086023 -4.2950373 -1.8660313 -0.30238852 6.6112776
continuous 2.2706585 -1.8377545 -5.624184 6.878524 3.9103367 2.7756865 -5.1910257 -1.6155742 -1.579876 6.608996 1.6938392 2.7907274 0.7790092 6.6754146 5.387408 -8.493198
object 3.7957397 -3.4303026 -3.6532724 -9.236178 -2.7638416 -1.8970865 2.7798338 3.1604514 3.3264863 4.882711 -0.7143869 4.6113687 -1.9503871 4.8619385 -1.0513322 4.7742834
data-mining 6.991623 -4.6947412 -1.5508008 -3.0833223 -3.1787736 -7.834422 1.9127293 -5.5032487 -3.4566813 -6.6049943 -2.877603 -2.017581 1.2654063 -3.5917869 0.61825323 -0.12365376
languages 2.825848 -7.5639057 -4.2564507 -11.19312 -7.877802 1.6973096 1.4064533 1.3782699 5.6637855 1.8578392 1.4774551 -4.4374833 -2.8224902 3.510906 1.7268165 1.4161931
clustering -1.6302105 0.9287951 -10.004842 -4.2115154 -2.1547918 -11.480414 -2.87017 -0.57397324 -2.7559452 4.1598983 1.5016773 4.2268085 -2.5265248 -1.9553988 9.911244 1.5492172
text -0.25026122 -7.020182 -4.340096 -5.3875384 0.6253919 -8.363332 -1.7660822 -8.325142 7.1318336 -4.1779857 -2.9058669 1.9794431 -3.2711976 3.522332 1.0335109 6.3151813
semantic-analysis -1.462895 0.987963 -2.0037775 -7.5587163 0.9548984 7.672253 2.7495584 -3.7272227 0.3604176 -6.2394905 -7.4564962 2.046763 -0.55022246 8.085789 -4.284118 3.7628086
parallel-computers -5.6718144 6.5428605 0.52439517 0.5946334 -0.49665415 4.219507 2.1692028 -3.0147853 -0.16615127 0.5239409 7.7532215 1.905321 3.9567256 9.098931 -4.701809 1.8179849
processors -4.9713945 0.28592333 -4.1980286 -7.524798 -0.27394322 -1.466959 -3.855407 -4.1072335 -0.018930959 -4.966934 -0.87118155 -8.178874 1.1365713 6.1476045 -3.8869197 2.1669323
computer-systems -3.7864478 2.6148968 -0.70945126 0.8032238 2.7172778 0.38939023 -0.6145699 -7.75275 1.6097113 4.2446036 6.090731 -10.64325 1.1292667 5.757766 -1.3852289 -2.0646052
protocols 3.114967 -9.224182 -0.44043925 1.6194232 -5.485853 1.1421388 -1.4481183 2.7458632 3.5709534 1.8006759 4.500865 -6.292601 5.9188356 -0.79666495 0.38499394 -0.63325465
artificial-intelligence -2.2069983 -2.9204261 0.27908793 0.50434273 -3.374646 -2.1692781 -0.8149301 -0.12256114 -4.4809856 -1.7802187 -11.145427 8.49408 -2.637533 -2.4865754 -3.9015977 5.8081512
intrusion-detection -3.6285477 -3.973165 3.758487 -3.0534089 -4.8327155 4.3447485 2.7032306 -2.1546924 2.613612 -1.3496311 0.43805492 -2.9591448 1.6912861 -11.809448 -4.741379 -1.041331
computer-science-majors 3.5350683 0.63807994 3.5745723 -2.9946566 5.3593564 -2.399766 -2.6977165 3.5623 -2.505676 -3.2461596 -1.8401778 3.9752152 6.6614003 -3.8760264 0.448238 -3.257888
solution 2.9919267 -2.1246967 -1.8830471 -0.59295917 2.2193775 -5.5687428 -2.5226607 4.7903676 -6.2799683 -3.42941 1.0141188 -7.8438125 5.336866 3.6950066 -1.4589382 -3.1951594
introduction 7.032796 -2.8512678 0.8541101 2.735266 1.5115104 -4.8444104 -4.527268 0.63672054 -5.6607604 -5.278423 6.035691 -6.4171557 -1.0589353 4.5905576 2.0334392 -3.7741334
ethics 0.9099761 -4.3295875 -4.1506863 -0.39550182 4.307691 1.7426453 5.052023 4.7114305 -3.0816786 -0.6471172 -4.597882 -1.2349641 2.1620631 -7.3934574 3.7194018 -4.6510873
science 6.738765 2.9459248 -1.2089955 -1.1359438 1.8464365 0.17039828 2.6116838 2.1243372 -8.024292 0.43167707 0.3861408 -4.941317 8.280493 4.488906 -1.5275258 -7.0502357
networks 3.5184324 2.9241228 0.6114429 -1.4326067 2.3783224 1.0779514 1.1129361 8.87356 -5.1535573 -0.066124104 4.143289 -0.10014197 0.2333781 6.4387484 1.2873001 3.1394439
hardware 4.701371 2.8436995 -3.7731495 -2.5084937 6.5055966 0.48091435 4.9912467 4.4274 -5.779906 0.4055457 3.6031668 -1.9363208 -1.9999889 6.795936 0.17770462 1.2138419
databases 4.876933 0.6230764 0.9222933 -0.256082 6.63998 -6.2300873 4.655505 -0.44794214 -4.024492 -0.16836166 -6.4387326 4.580392 -2.7455015 6.9913692 1.470136 0.7009394
level-computer-science-courses-taken-concurrently 4.00269 3.0478373 -2.7222383 -0.5970053 1.4000194 -4.8672404 5.25578 3.0262697 -6.209309 -1.6021956 -1.8412939 -1.034367 5.387695 -2.117512 4.993445 5.884627
special-examination-may 3.5430508 2.890972 -1.7506194 0.5385176 1.7812395 -6.1462135 4.1294837 2.4534543 -5.99141 -1.7026387 -2.4307506 -1.59955 5.4593606 -1.2223654 5.9451346 5.6187057
honors-credit 3.3388362 2.8304598 0.3913347 1.8455057 3.1593924 -7.8684273 2.8890088 1.103777 -5.1251836 -1.6438915 -2.648549 -1.4138621 6.4375076 -0.90446097 5.507545 5.5365806
offered 6.8173976 0.90105605 5.1484246 0.6841111 4.0850782 -4.086531 4.622331 -0.17458524 -0.31186435 -2.530046 -0.64186233 -2.4314678 6.274003 3.353311 6.613801 2.0020025
conjunction 6.363225 -1.6256858 6.0622425 -0.24348234 4.1308312 -2.6602128 5.616064 -1.2362969 1.6460425 -5.0096555 -1.6631864 -4.28658 5.853759 3.2169378 5.7058454 0.25883383
admission 5.5646267 -2.1711335 5.848994 -0.18032831 3.5037158 -1.8177007 5.711149 -2.3391094 1.3932941 -7.050328 -2.2115417 -4.0683475 5.6071706 1.8823215 5.133257 -0.8309678
programming-techniques -3.2162645 -3.7724495 3.4473324 5.75949 -0.98989844 2.920797 0.3447692 -0.46768916 -3.1436434 -6.68272 -1.3983294 -5.256908 5.176696 1.169464 -3.3718185 -6.3247313
data-structures -2.2954977 -2.3260822 -4.8524513 2.1784503 5.6561317 4.2271256 -4.6072464 3.659543 -4.3427515 -2.8939404 -1.459432 -0.49257448 0.09428206 5.4786205 -3.583825 -4.8546104
use 3.224286 -1.1500827 -3.3535242 -0.16742834 0.10333892 2.0931368 -3.026935 2.944322 -8.790378 -5.435747 0.6232413 -5.180637 0.080239326 4.987231 -2.1095424 -7.228995
modeling -4.360955 2.9608016 1.5381886 9.209041 1.3670506 0.126814 -0.88407654 -0.97430104 -6.1876454 1.5013427 -0.9768808 -1.7085142 0.8023544 4.845218 3.572329 -5.3895597
students-work -5.3949623 0.713078 1.4364758 5.1580744 -0.13147976 -1.6327349 3.9557269 3.06243 -6.374642 4.3236227 0.8405937 -2.4323301 1.7887203 -7.3054786 -1.4635779 -6.817712
teams 1.3748435 -1.1500319 2.9477577 6.884747 1.0917646 -5.4235897 5.810356 2.9212728 -2.5136395 2.9619098 2.2985678 -2.6423028 11.224857 -1.6646854 -1.162214 1.1062744
current-interest -3.4001713 -4.7001348 8.413487 4.9452686 4.053606 -4.7358193 7.1301107 3.3558264 3.9632783 1.6528207 -1.4366231 1.8359534 3.1089246 2.9723952 -0.8662016 0.23075673
class-schedule -2.9585426 -5.239184 8.345559 5.960735 2.8501725 -4.1600056 7.057583 2.5166807 3.3248208 1.4660326 -1.4703677 0.24855241 1.4805855 3.9622173 -1.2474875 -0.023653198
seminar -2.4356053 -5.06712 7.0936027 7.784705 2.266928 -1.1036175 7.8078218 2.117552 1.0786722 2.7112806 -1.2499902 -3.534155 -1.8102176 4.419972 -1.1205721 -0.572972
announced -4.279065 -4.7444983 5.119992 7.756961 2.486934 -0.7101434 7.650502 3.9897077 -0.10300366 2.3630562 0.97401524 -4.3278737 -3.1412477 2.1435823 0.6285338 -0.99523264
study 1.7916889 -0.5294822 0.63127273 4.2967443 1.5865258 -3.063231 -3.2683783 -0.43023723 -8.558021 0.4422405 -8.488292 1.2892275 -4.2324133 -3.5063915 -1.252227 6.2551155
parallel-programs 0.69521505 2.1343968 0.49793345 -0.40599266 6.4724207 6.065764 -1.9551852 -0.7857893 0.67909676 3.2261024 0.6939426 -2.699207 0.850984 8.885686 -2.509572 0.9438797
well 3.9643517 -2.1306293 0.31759685 -2.1361415 9.793618 1.5068078 -4.359448 -1.4366773 0.14826977 -3.026847 2.942576 -3.1376534 -6.0028996 4.7773933 -3.5111427 3.2221258
students 3.8672335 1.534075 -5.842196 5.1603675 3.7640665 4.6293263 0.16206409 -1.1026795 -6.539002 3.3767436 -2.7850235 -1.1582093 6.1690736 3.8310418 -0.20888399 -3.3496478
distance -7.962943 1.5762838 -1.1046888 1.456321 -1.3340298 -0.1984462 -4.145038 4.626738 -1.2478733 8.219423 -3.8356056 0.39988375 3.2029476 -4.364493 5.348228 2.6519823
randomized-algorithms -4.9968033 1.9378126 -1.6312598 4.5896645 -1.4160132 -0.4332164 -1.8204205 -1.1671216 -1.6042682 10.607663 0.27704397 6.060553 -5.5755644 0.98652875 2.902149 2.5793097
sampling 6.660193 5.2828836 0.36628553 3.3145394 5.3758917 0.17807217 -4.1424603 -4.6084023 -4.974351 4.783168 3.9972363 -4.191496 0.087379046 1.6114157 3.478333 1.5848478
basic 4.175533 -2.8033204 -1.0463967 1.603237 -1.0292553 6.052197 -1.3538792 3.2140467 1.204311 5.485037 -2.5927138 3.2715356 1.0517528 10.020354 3.1282809 2.6445887
approximation-algorithms -4.4006357 0.94298404 1.1054509 3.547362 -1.5255246 2.4605825 3.933781 2.2193892 0.64770156 9.049971 -1.7896292 4.9065337 -0.5126065 1.4967153 0.54506516 6.6363554
semi -0.43977296 2.7539093 -0.4584789 -1.1919032 0.80480546 -5.8998394 -2.7328134 1.5916401 -1.1304281 4.496653 7.280279 -1.6418544 -6.6569214 -2.152176 7.2923203 8.118037
np 1.5170808 -2.10526 -2.6279907 1.7053982 -0.8677646 0.5220061 -3.6790073 8.469616 -2.154914 2.2802892 4.034517 2.118064 -1.4173408 4.950769 5.318212 4.691466
speed -1.3402764 -1.4655193 0.71980923 -1.6707335 6.3822026 0.76048964 -4.622282 -2.2411025 7.2628155 7.5201707 2.1094248 6.78728 -0.25228846 2.921651 -2.1220307 1.5974987
complexity 1.8539311 -7.3613257 -4.2225013 -3.0876398 -2.4703283 2.7201405 -5.2737513 7.8267894 -1.3152899 2.3723357 -2.9038148 4.6623836 -4.0292935 0.824393 -0.5360686 0.61322415
current-research -4.6263804 -0.68101287 -1.8906131 -3.2495344 2.8015697 2.0735567 -2.9423552 2.4343843 -2.338936 -0.46207893 -8.409078 -0.726125 -1.9302981 -1.3994398 -3.4995818 8.831423
information-retrieval 5.0917616 -3.8458366 -4.703244 1.9823943 5.4446096 2.7939515 -4.029736 -6.990718 -0.9988621 3.2773542 0.11860868 -5.2999406 -1.8783609 -1.8959372 -5.267011 4.092567
research-frontiers 5.4074736 0.480352 -0.09011004 0.39239943 4.1368904 0.6938197 -2.6295657 -8.125903 0.915907 5.876832 1.2814121 -4.89043 -2.1020844 -5.48579 1.8691282 5.3266573
problems -3.5753024 1.4832342 -4.6647553 -3.3065429 5.186837 -0.9171536 -2.7279797 -1.2735364 2.4082708 1.9708817 0.8317246 9.099195 -1.1546018 -3.9198442 2.1450458 5.108089
trees 9.005786 -4.9505086 -1.7288772 -4.795283 -6.1468554 -1.6024863 -6.392872 -1.4941621 -0.2386365 -2.1414778 -1.8393142 -0.88433343 0.32012182 0.95440286 8.04749 0.46292767
query-languages 1.8946238 -1.5639648 3.8462496 -1.7983917 -9.09633 -1.0563581 4.363761 -6.515667 4.6898394 3.801136 6.1708894 -6.0473375 0.635275 2.291026 2.4538634 2.9247148
network 1.8591933 -7.5508184 3.1160831 -1.7096214 -3.3781726 -7.440883 2.1461425 0.8734885 7.1902924 5.143472 5.414798 -0.76059014 1.3949069 -1.8953838 2.4555483 -1.1326947
examination -0.62356627 -7.415528 0.034954347 3.3897567 3.1143572 -9.709573 3.9701397 -1.519743 2.9043715 1.3860084 -3.9142694 1.8831776 -4.467238 1.7621387 2.3954902 4.6859207
review 3.8023427 -1.6092199 0.027164543 -3.220447 -2.1127732 -3.951718 -7.969032 -1.9309316 2.115932 -3.2505846 5.250885 -0.37593874 -1.3481861 1.2131076 10.785881 -1.3631523
context 6.8273654 3.009878 0.7487572 1.3939153 -4.1314 -2.3265648 -3.9543488 -4.7380533 -4.5762844 2.0930629 1.848782 4.6959395 -1.3807485 0.14269853 7.5645103 -0.7681907
e -4.5797687 -0.6826837 -2.7588918 -1.3725917 1.3210496 -10.194838 -1.3856952 0.79836684 1.8882109 2.8501909 -0.4142264 6.9046674 -2.4310203 -0.25623456 8.637338 1.1648663
principles 1.7550697 -4.3599973 -0.99570733 1.7301146 -2.5083373 -5.1177235 -2.6518166 -3.9472363 0.7546803 -3.4221058 7.366751 -5.1460114 -4.701818 -4.1753354 6.8646774 -0.064793125
directed-translation 3.9230843 3.8931735 1.8169806 -11.735587 0.54448634 4.915411 0.19586201 -2.7575433 -0.41024208 -2.7956471 4.5575686 3.3589847 -3.9894657 0.021345008 -5.8976655 2.7891927
code-generation 5.0518527 1.6924834 0.9144565 -11.01418 -0.16988061 3.5825782 0.34605822 -0.9947288 1.2301557 -0.7084114 6.0612874 3.27745 -3.2801735 -1.8091562 -5.1277685 6.112137
projects 9.660568 -6.5801253 -1.9232842 -4.021492 -1.4778894 5.676353 3.241372 0.46125197 -0.38873738 0.7962407 -3.2821355 5.8615737 1.6748247 2.5958028 -7.125806 -2.9309485
hands 7.247957 -3.8446147 -2.0720766 -4.842113 2.3926566 2.6642673 0.7665696 -3.361597 4.7079616 0.37402204 2.83914 3.3341827 3.2774997 7.4119287 -2.249745 -5.5582876
function 7.3926196 -3.092409 -3.4214425 -6.5459604 1.0974668 6.564116 2.2889469 -2.8971536 2.4686642 0.84468675 -4.8106585 -0.7696964 3.6947598 6.5631137 -2.2990496 -0.6958611
verification -1.1494161 -8.250007 -1.9801527 -4.2165017 -4.9154644 0.13874494 1.0426061 6.334595 5.0698237 -1.4613403 -0.7263616 -2.7152085 5.6443887 4.093571 1.2453094 -0.028367005
project 1.1345136 -0.42978907 -2.403047 -4.5826726 -2.97579 6.9322476 2.7257156 3.5397494 -4.9266915 -7.004571 0.12916063 4.4683857 2.8613741 -0.90443516 -3.9140007 -3.6791956
multi 0.66936696 -4.448815 6.9654574 -5.825093 2.6729136 0.7459851 -4.7358246 5.5262303 3.366732 -3.1751184 3.936829 -5.8975687 1.0188769 0.6485965 -2.916981 -0.56985664
software-development -6.1622815 -5.856316 -0.13514428 -4.5421796 -1.682015 -1.3038088 -3.1368833 0.70354253 2.952403 -11.099784 2.1259577 0.6733403 -2.1138136 0.34738213 1.1211818 -2.9778376
software 1.1725708 -4.561845 -1.8772358 -5.888341 -3.9067597 5.6445756 0.1734759 0.84471625 -1.2108766 -7.4131474 2.7979155 -5.121126 -3.6788993 0.23295163 -0.9268926 -3.889429
exploration -9.481276 0.39725116 0.18458524 -5.672211 -1.1106625 0.55701596 -1.0275476 2.4442272 2.7525837 -5.8048244 0.7438305 9.987986 -5.4681773 0.323212 4.434382 3.2604675
reasoning 0.36670265 -6.8009996 -2.319753 -5.412056 -1.7895023 -2.9533434 -7.0582957 1.1629038 -0.47706798 -7.782745 -2.3536613 1.090237 -6.2240033 -3.3541906 2.8266912 2.834663
parallelism 4.0117736 -1.512895 -2.0677457 -2.100964 -1.1803302 1.9770062 2.1134195 -3.1769931 -3.435979 -7.009387 4.729514 -9.917352 -2.6239648 4.2661057 0.38993502 0.0659932
fundamentals 6.437844 0.48113593 -2.96346 -1.3840569 -2.069811 4.3509865 1.9146553 0.72344357 -5.875402 -1.0056638 1.1877866 -6.39251 3.2041512 7.638939 -1.7907379 -2.153751
performance-evaluation -5.368469 5.546216 1.302914 2.2480187 4.9815655 4.9497395 3.0216093 -3.3058822 1.1052421 7.265918 3.862434 -4.628515 4.9607544 5.867052 -1.6982147 -3.032609
optimization-techniques 2.5253882 1.2223467 -0.09826582 -3.5803697 -1.5128667 6.444862 1.0738374 -6.190435 -0.1557506 -4.504528 3.3400753 1.9072243 -1.0596368 6.819008 -5.416264 0.4921688
parallel-programming -9.916186 2.9890535 -2.5854197 0.110967934 1.2199386 2.7561924 4.067245 -5.532984 0.52867436 0.62949973 1.6030654 0.042810723 -2.653114 -2.5482225 -4.0581727 6.764664
load-balancing -9.533331 2.6327057 0.5400177 -0.19135606 3.5787036 4.41241 -0.4998376 -5.7553473 5.010191 1.4225122 3.1132255 1.0569878 -0.4949942 -3.82986 -0.9237662 2.217883
key-concepts -7.9564586 0.8482628 -4.8209286 -0.7828291 5.5262303 3.442594 -3.002425 -5.289614 3.4557369 1.0694116 2.5115516 1.5307426 0.9533628 -0.7942498 -3.3494773 0.106545694
classes -3.7551303 -2.0205421 -1.6863393 -5.9898877 -5.2209916 4.40408 6.220553 0.82254237 3.6315396 6.4397798 2.5669782 -0.9225124 -0.59402406 3.39086 -5.5485 -0.39411068
parallel -1.0106375 -2.05831 1.1627159 -3.5453331 2.837556 4.120879 2.28001 -1.7639557 5.4571466 6.069393 6.9015107 -2.2514765 -3.4506183 -0.210829 -5.104178 -0.6096505
computations -5.2689505 0.51319015 -0.61627316 -4.322757 2.7441697 5.232945 3.578268 -0.8732399 6.1376863 8.269296 5.5936875 1.5231293 0.0038192356 -0.15049899 -2.8144321 -3.3412898
survey 3.9860332 -0.83409685 -4.6407194 -3.247071 4.2280555 2.0711622 -0.9085286 -3.1897256 1.903042 2.7656555 9.02998 -4.0813537 -2.6775389 5.777729 0.54355764 -3.8361592
simple-memory-management -5.584109 3.1219156 3.8067782 -5.738703 1.9765791 2.650707 0.5147642 0.26730567 1.069075 -1.3809696 4.2296824 -6.3009653 2.0672905 -2.1167028 -2.1538515 -3.2175932
process-control -5.7138047 2.8356867 6.32927 -2.4181786 0.30152124 4.530846 2.1161127 -1.1573697 0.9447095 -0.8448582 5.5914354 -6.099023 -0.5230085 -2.6038983 -2.4924293 -3.045884
usage -0.8418206 0.5540846 2.6291044 3.0100849 4.1732807 5.8171945 1.5733043 -7.5169897 0.275601 -4.262612 0.5758249 -10.487758 2.4036353 3.2104595 -1.8852572 1.4767709
file -2.1806393 -0.69934887 4.8780656 1.3105775 5.772898 6.2138734 0.3799329 -4.0609612 6.2281857 -3.1907854 4.395364 -4.101856 3.1057315 4.680118 -2.8273473 3.8534367
directories -1.662239 -1.2358247 4.609215 1.0478362 3.8744981 8.096768 -0.9911246 -1.5821844 6.4923706 -2.0629017 5.8118114 -2.8101523 2.6297812 6.9979587 -2.51701 5.418848
approximation 1.3597814 1.9493283 -3.3409672 2.970016 -3.4196594 5.715253 1.2701174 -0.85714614 -9.013955 -3.8897321 -3.3760026 2.8123095 -2.1794305 7.7533007 0.45578477 -2.2085118
ordinary 3.746723 5.281519 -2.2254457 4.327414 2.5999303 3.8385785 2.894203 -5.4545135 -6.6989517 0.22159831 2.8522398 3.5749733 -0.0025404545 5.672505 -2.6851273 1.2516028
discrete 1.5047294 -0.84927493 -1.5415965 5.7784686 0.18877691 1.9451293 -2.98707 -3.0354981 -1.2283541 7.55905 0.37986735 0.67549425 2.3539166 5.980179 3.1609995 -9.1783085
computational-complexity 5.0226383 -2.648617 3.711561 5.506533 -0.45843527 -0.25025848 -4.102831 -6.0083256 -3.9100547 -7.363695 -0.6591346 6.617401 -0.3248343 -2.4924953 -2.7469487 1.8994504
distributed-systems -4.483439 -2.2155871 7.629141 4.4334755 -1.0745628 3.7099671 1.6295155 -4.297444 3.7496715 -2.837903 6.931189 0.78143746 -3.5733793 -3.1306047 -0.57257265 -1.5691096
time-systems 0.594723 -5.4526467 7.4845047 5.775087 1.5870849 3.5641217 -3.1113832 0.12240188 4.7087603 1.6290929 3.2777612 0.78724724 0.54973054 5.842792 -3.3328726 0.69738555
architectures -1.5029103 -2.7482686 2.7704418 2.1786716 -4.5657005 -3.2171905 -3.8132002 4.4854684 2.2426243 4.6561627 1.3465205 -2.28037 7.725387 -0.46658674 5.771497 0.09260514
area -4.2785096 -0.11413013 0.97258914 0.9316815 2.2106197 -0.8091417 -6.3881435 1.0569927 -0.29736447 0.546043 6.2129717 -7.602171 -3.058939 4.565964 5.358991 -4.5018115
wireless-networks -0.5839588 -1.1941314 1.3662535 -4.3004937 -2.3807323 -2.5252535 -3.5053093 -2.0125382 0.08691323 7.681329 4.0439095 -2.4352226 -0.6346481 -7.0094156 -1.3810575 -7.8972526
sensor-networks -2.9598498 -2.0580027 2.8130338 -3.2513757 -0.9324835 2.2125642 -4.9995294 4.327117 -1.4115201 2.658874 3.5946054 0.33437726 -1.1297175 -9.484459 -0.7613975 -8.230997
application -5.189088 -0.06341901 2.7855515 2.4347057 1.0827407 3.219352 -2.2593205 2.1228256 1.9857334 1.9540685 8.26923 -4.311859 -4.6825213 7.0467978 7.036185 -5.20488
virtual-memory -1.701326 -2.8015249 4.220386 0.5831038 -1.4645159 5.1436753 -1.8146933 0.11391919 4.126263 -0.6335286 10.179195 2.3311112 -6.2830734 -1.5521078 0.31279168 1.3281286
protection 5.2356524 -4.386619 3.903911 -3.7326303 -1.5389718 0.07280459 -1.3035907 -3.4255216 4.6822705 4.1400065 10.526671 -2.5579038 -4.6446395 -2.384239 -4.272924 1.0476781
three 0.7740503 -4.126438 -1.6456416 1.2917038 -6.723093 -3.0930862 -1.1853185 3.3144453 -6.116872 -3.5652277 -7.918548 4.67045 1.0958594 1.3954716 1.3607681 -0.9850235
robotics -1.6109653 -4.533202 -1.43888 1.1344165 -2.5890307 -3.2639742 1.5401052 2.2896163 -5.107095 -2.0511148 -10.006997 7.0976686 -2.4011533 -3.61951 -1.7261336 1.5368108
access-control -0.30133086 -3.7238524 -4.624447 -2.2909677 -7.063155 2.692224 3.03505 -3.995355 0.29797614 1.7803562 4.169683 2.3172622 -0.88180363 -7.706696 -4.211824 0.59453183
specific-examples 3.9330676 -2.4248626 1.1064556 1.086282 2.4747052 -4.33845 -5.194883 3.852441 -4.500408 -3.47959 0.85566247 -2.8787956 3.9133978 -0.0059540425 0.27960283 -2.4701283
problem-areas 4.608423 -3.1666315 0.9174473 1.054068 1.8441572 -4.2108784 -4.802723 3.6894453 -4.677652 -3.967702 0.4097074 -3.8319604 2.366335 0.7675234 1.2848923 -2.631577
career 2.9871578 -5.500014 0.41142935 4.3992457 -0.29282796 -5.9029813 -2.363938 1.9891536 -4.273818 -4.329418 1.984167 -4.7658744 -1.7820892 1.1665645 0.7460479 -0.113651656
intellectual-property 2.0631573 -6.014154 -0.16493288 5.0430956 -0.8241465 -5.402321 -1.2486719 2.3209608 -4.2486134 -4.051564 1.2057986 -4.622439 -1.3229966 -0.5672502 1.617709 -0.21593387
ethical-decision 0.7001995 -5.661498 -0.41060707 5.878961 -0.21770443 -4.143415 0.38308823 2.0241425 -4.096627 -3.8121834 -0.06614885 -4.2508416 -1.2480807 -2.5025208 3.005594 -0.65350294
computing-profession 1.3379438 -5.727386 0.6955216 5.225226 0.23182793 -2.5204492 0.46195117 1.7881427 -2.6781018 -3.0315042 -0.98536575 -5.218356 -0.3938763 -3.6129606 4.5550976 -1.3047175
making 1.3752018 -6.1238003 -0.23945692 3.8639648 1.2100966 0.69679034 1.0484653 2.3154488 -2.030668 -3.0876803 -2.8009372 -4.752134 0.13435149 -3.930381 5.928964 -4.0154443
licensing 1.3885038 -5.6826878 0.094651215 3.1641893 1.8263617 0.4870205 0.9278149 2.5894372 -1.6522384 -2.691671 -3.037579 -3.7181997 0.33966142 -3.5773878 5.6205606 -4.573591
information 1.0778344 -5.389937 0.64948416 2.2422667 2.1513155 0.7284606 1.423248 2.462186 -1.36107 -2.1727858 -3.6739588 -2.8987002 -0.19548795 -3.517649 5.4197817 -5.1277976
freedom 0.80056196 -4.721416 0.9637674 2.079497 2.7751758 1.4665965 2.0954309 2.1872466 -1.3112646 -1.9097003 -4.2622967 -1.518915 -0.6806912 -3.238531 4.68429 -5.777993
widely-used-application-packages -1.7026767 -2.6290736 1.3415939 1.0397953 4.234401 1.4019789 3.8394797 0.7994788 -1.3916563 -1.7587141 -4.4789586 -0.5420995 -1.4033322 -2.5213046 3.272186 -6.768929
different-application-areas -2.524839 -1.5186666 0.6347413 0.6111594 4.5074778 1.1873884 3.971144 -0.012654413 -1.5827737 -1.9913695 -3.805287 -0.78904396 -0.7620843 -2.196922 2.982021 -6.2976213
computer-system-components -3.1123214 -0.5796561 -0.2887965 0.106601425 4.7108283 0.36245403 4.562289 -0.46718097 -1.933901 -1.9991229 -2.63671 -1.4454477 -0.29693827 -2.579128 2.673025 -6.436754
simple-problems -2.6043532 -0.35912126 -1.2116871 -0.062441476 4.2952595 -0.86897904 5.138625 -1.526915 -2.1993046 -2.0138404 -1.7167155 -1.7583094 -0.067657985 -1.969938 1.6778786 -6.4471035
professional-activities -2.590937 -0.14818744 -2.4069633 0.16606987 4.084717 -2.0344002 5.8419843 -2.6845582 -2.6306298 -1.5524467 -0.98843867 -2.4637637 0.0806371 -1.5296112 0.91130054 -6.487425
essential-tool -1.7715014 -0.089161865 -2.5078115 0.020359773 4.165088 -3.0523381 5.6677003 -2.487731 -3.2716947 -1.67623 -0.17699319 -2.948697 0.5771729 -1.201725 0.31060845 -6.401413
engineering-majors -0.9196057 -0.54442257 -3.3323154 0.89662045 4.3584213 -3.6097136 4.673658 -2.3042176 -4.0787106 -1.3704271 0.8797876 -3.3810225 0.99114543 -1.4487026 -0.270587 -6.397877
applications-software -0.032631237 0.3729675 -3.5671299 0.18926539 4.547354 -4.1160574 3.6686347 -1.5275797 -4.5894394 -1.8908406 0.91640306 -3.6180072 3.1647322 -0.12770069 -1.6507928 -5.504388
spreadsheets 0.5760438 1.7873114 -3.2713487 -1.7852902 5.0151353 -3.720363 2.2815955 0.3412848 -5.3033423 -1.8356658 0.4041948 -4.1171145 5.778225 0.6169689 -3.0632663 -4.3404717
practice 2.9553518 1.3469467 0.856479 -3.698983 2.7078164 -1.1801699 0.33725938 7.9409885 -5.310276 0.43981925 1.9163721 -4.5636344 5.8469453 2.619693 -3.0372837 -3.2253308
interrelationships 3.620516 1.2924173 2.211106 -1.4627029 1.2054337 -1.1734785 3.932886 6.265644 -5.135152 1.6203421 -1.0851136 -2.1980114 1.0461363 6.1946554 -0.7761879 -0.9931224
academic 1.4361665 1.3507012 -2.4724312 0.20145938 4.910672 -4.5682845 0.115048915 -1.3903385 -6.1040473 -2.39247 -2.3422103 5.309035 -1.923049 2.4306638 -1.6907616 -2.2936497
write-complete-working-programs -0.12769838 0.7005417 -1.8959051 -0.21600156 5.38314 -4.1354055 -0.87264943 -0.83698374 -5.155429 -3.0650804 -1.7897905 5.547045 -2.876609 0.90107685 -1.3953177 -3.2366607
one-credit-course-shows -2.1340554 0.91712934 -0.19441354 -1.3393108 5.139963 -3.131897 -1.160924 0.9363025 -4.4165435 -3.0238934 -1.0020325 5.3536406 -3.2648785 0.3370648 -1.1862891 -4.397983
solve-computational-problems -3.4386358 1.4852628 1.0736088 -1.2194545 5.2584524 -1.9160331 -0.6706503 2.1018102 -4.2093825 -2.0163455 -0.76871693 4.87497 -2.7030144 0.02938701 -1.4033543 -5.413358
small-classroom-setting -4.500562 1.7730222 1.501257 -1.1583141 4.8801737 -0.7927132 0.06443603 3.0796673 -4.4993033 -1.2755712 -1.0124403 4.0846233 -2.4463549 -0.78383636 -1.6031698 -5.618047
computer-science-designed -4.80988 1.7433376 1.1573703 -1.5282178 5.050652 -0.5644933 0.17984807 4.1293817 -4.5219173 -0.7045867 -1.0271122 3.3589685 -1.3580755 -2.2199664 -1.4749329 -5.9478364
students-enrolled -4.879603 2.6812615 0.6982067 -2.6714978 4.867368 0.07319225 0.19833629 4.940522 -4.7994003 -1.0985521 -1.3180697 2.421863 0.286704 -1.7625622 -1.9945836 -4.753478
extra-help -4.7133102 3.1977468 0.5304514 -3.126999 4.58807 0.33938745 0.40343085 5.508992 -4.754859 -1.3421017 -1.90027 0.8360335 1.9150763 -1.5723435 -1.9288425 -3.7029324
cs-125 -4.7833815 3.3761294 0.6411094 -3.687242 4.4359717 0.43085468 0.8929507 5.588974 -4.7918057 -1.8500488 -2.4968188 -0.5741496 2.8263004 -1.5384171 -2.1113355 -2.4249303
analyze-algorithms -4.286154 3.43331 0.8940049 -3.7798498 4.1426883 -0.044417758 1.9693592 5.612889 -5.017046 -2.2384334 -2.7790635 -1.5010157 3.6948953 -1.680559 -2.113168 -1.5401525
thinking -3.6995394 3.6779327 1.1297947 -3.6829143 3.4188082 -0.8619229 2.3926926 5.256652 -5.159626 -2.3471038 -2.8311267 -2.0246959 4.062316 -1.0446471 -1.772858 -0.04849954
looking -2.0396767 3.7988958 0.4313709 -1.9499542 2.6992931 -2.6870594 4.3243847 3.942591 -5.657519 -3.2582793 -2.604104 -3.7240248 4.141609 -0.15958838 0.7645164 2.7446496
debug -2.2205195 3.7098708 0.101737335 -0.63630086 2.782647 -2.8106687 4.4734945 3.978656 -5.581906 -3.4054823 -1.8230865 -3.4737391 4.5872145 0.5740164 1.2402171 3.1148493
100 0.7779914 -2.7806423 3.2999792 2.2369967 3.445494 -0.5310507 1.2702153 0.30045354 1.4326762 -5.238044 -0.20459911 -3.6013503 6.610288 2.8759553 2.5574343 -1.0469528
basic-problem-solving -0.7019662 -2.3079975 3.6583736 2.27828 2.5368934 -0.21145736 1.7764021 0.05633702 1.1879681 -5.030962 -0.9385111 -3.836878 5.6692557 1.6034416 3.0495234 -1.920777
solving-engineering -2.6319323 -2.3847108 3.1658773 2.664602 2.0257175 -0.67335933 2.0660143 -0.26552907 0.5855105 -4.841567 -1.1521376 -3.9016848 5.439512 0.45044506 2.331547 -3.8190389
scientific-problems -3.711403 -2.9376209 2.991105 2.9712338 1.6350076 -0.60938835 1.9763464 -0.55923426 0.21129699 -4.8498373 -1.3919994 -3.5533328 5.237968 -0.4139652 1.3301514 -5.5409775
science-majors -3.593652 -3.5197685 2.8963597 2.5791004 1.2966686 -0.2773513 0.81448543 -0.23853451 -0.28970775 -4.5241127 -2.0374093 -3.139409 4.99071 -0.112943575 -1.5977291 -6.047942
physical-sciences -3.148374 -2.9412844 2.3720255 2.0741148 0.9062377 1.5009975 -1.0165365 1.498477 -2.9681268 -3.9454134 -3.3467684 -2.6017706 3.4883478 1.9297413 -5.4349904 -6.2261457
fundamental-algorithms -0.8089948 -4.107207 -1.2889638 1.4724483 -0.45997626 1.884455 -2.9505594 3.3297067 -5.316093 -4.9433737 -3.8794584 -2.15816 2.9924135 3.3994389 -4.6268497 -6.8259697
computers -1.4670097 3.2717621 -3.6358516 -1.0325202 3.1986117 -6.242913 -3.4853203 1.1462262 -6.240136 -3.1850011 3.1588807 2.3142233 -5.9287796 5.8762717 4.2936196 -2.1201346
instructor -4.0098405 1.3728341 -3.3949106 3.3990471 2.0145948 -6.970474 -2.5867736 1.3481921 -5.035858 -2.7372696 3.8895555 3.316092 -2.3557954 3.5389633 3.7626553 -0.8871426
consent -4.1031327 -0.24227321 -2.5699255 4.6218724 1.7295544 -5.4783154 -2.8641396 2.2481174 -2.9307468 -2.2806437 2.959174 2.7554376 -0.12568188 4.116394 5.4469876 -1.2409205
recurrence-relations -3.3802614 -1.1666293 -2.288579 4.1920147 1.9197092 -4.843118 -3.446486 2.63805 -1.8685087 -2.763031 2.2892842 2.4405904 0.78076476 3.4546072 5.9071856 -0.76842195
generating-functions -2.9870026 -2.7171373 -1.1673836 4.2812557 2.5854998 -4.0943036 -3.837781 2.6175733 -1.0175579 -3.8863394 0.44752917 2.2469153 2.081371 2.3359544 5.4499035 -1.0789633
block-designs -2.4060814 -3.8114142 -0.50916624 3.7898216 3.4178731 -2.5720112 -4.7117214 2.5254328 -0.19879822 -5.328674 -1.3046921 2.007342 3.3939452 0.87765354 5.181055 -1.4731778
polya -1.7834318 -4.696247 0.15864654 2.6441607 4.972988 -1.7250037 -5.2966185 3.2306027 -0.20212278 -6.6347013 -3.1002665 1.5034955 3.9925685 -1.1395643 4.102004 -1.0979004
permutations -1.9549612 -4.206594 0.32599565 1.8304636 4.614679 -1.7716957 -4.7913327 3.3993795 -0.8044978 -6.3338203 -2.8615112 0.8621469 2.9967458 -2.167791 3.5494363 -0.8133934
inclusion -2.41467 -3.7186787 -0.07434429 1.1487768 4.7397566 -1.9739866 -4.882761 3.3363073 -1.056324 -6.172235 -3.073115 0.3142859 2.2243028 -2.6405928 3.2529612 -0.6176637
exclusion -2.7682726 -3.024309 0.04422822 1.2554978 4.647548 -1.203091 -4.760744 3.2038472 -1.7701203 -5.5661263 -3.541496 0.21326938 1.5306307 -3.0800633 2.348334 -0.592805
counting -4.017481 -2.027995 0.2170407 1.5822253 5.030147 -0.49603224 -3.8329864 3.0914423 -3.0712621 -5.1974773 -3.8929584 -1.1786903 0.30344003 -3.3359776 1.9316665 -0.7250158
combinations -5.078974 -1.1445141 0.097455025 2.0946722 5.2315264 0.3668922 -3.2571232 2.9411833 -4.3149257 -4.6187305 -3.9716008 -1.6661499 -1.0338868 -3.068199 0.96267766 -0.9452894
basic-mathematical-tools -5.019943 -0.44133127 0.0900519 2.789256 4.891245 -0.062302213 -3.4901974 1.7452058 -4.7073946 -3.950881 -4.1181912 -1.8487906 -1.5356354 -2.3295293 1.0184165 -1.3971909
computational-techniques -5.4584885 0.648613 0.2670394 3.7020888 4.260535 0.22412884 -2.7984622 0.83387923 -5.4263806 -2.987158 -3.4975035 -2.1092956 -2.172864 -1.0191364 0.839846 -1.965533
animating-3 -5.5534105 0.85513294 0.3952092 4.4678774 3.862237 0.23526023 -2.2182271 0.67940855 -5.6708 -2.275651 -3.0191658 -2.0063894 -2.3460255 -0.42357814 0.872468 -2.7245457
scenes -5.9325204 1.8912072 0.9279566 5.4197955 3.1093814 0.7912348 -1.2173109 0.12821074 -6.2722282 -1.6941242 -2.2833643 -1.6119902 -2.5156622 0.5217353 0.8121879 -3.2118137
rendering -5.5814967 1.9951618 0.72672063 5.4208283 2.42951 0.06541871 -0.48729897 -0.012526897 -6.3651834 -0.34696525 -1.5329628 -1.7197983 -2.5332057 0.68046814 0.35027003 -4.0937448
solve-typical-commercial -4.202593 1.6948773 1.5254477 5.8513603 0.37921488 -1.0820762 0.7433071 0.3438557 -6.478218 1.376638 -0.52530974 -1.0444168 -1.3106698 -0.042399526 -0.16163413 -5.4055376
work-involves-planning -3.2891273 1.3851166 2.2765574 5.517365 -0.073738635 -1.6435269 1.5771906 1.1016148 -6.4482265 2.0957124 0.018786257 -1.0926038 -0.48570472 -0.71547693 -0.37422347 -6.020334
written-work -2.3635032 0.9666037 2.8863487 5.350235 -0.92318237 -1.799965 2.2484457 1.6630101 -6.2296667 2.3736863 0.31635493 -0.80169165 0.21259299 -1.3211377 -0.28650516 -6.011544
project-course -0.3892145 0.123362534 3.0348701 5.0494757 -0.68326306 -4.0241895 1.3694654 2.151135 -6.035633 2.599469 -0.7703032 -0.10346136 2.7219865 -3.0077834 -1.1865398 -4.6553087
industrial-problems 0.4453975 -0.59778327 2.819411 5.3271337 -0.20655367 -4.6106005 1.0539548 2.0118852 -5.876702 2.6798944 -1.626632 -0.2169831 3.6470737 -3.4167767 -1.0436125 -3.9522982
first-part 0.9862018 -0.9076137 2.393486 5.380739 0.44531947 -4.7929635 1.42662 1.5667815 -4.77603 3.0236259 -1.9079735 -0.14406094 5.087415 -3.1860807 -0.74954915 -3.7242067
extensive-oral 1.5806638 -0.8090262 1.9956034 5.7220387 1.883854 -4.9700766 1.4184031 0.31414846 -3.7515314 2.9655414 -2.691385 0.039212305 6.5179677 -1.5233041 -0.03716581 -3.1820447
sponsors 1.9043409 -1.2849324 0.61659217 4.3480015 4.1219363 -4.9208403 2.709094 0.64202183 -1.0190889 3.1361763 -1.7083037 1.5010701 7.9769144 1.4344635 1.2066076 -2.70239
possibly -0.013316542 -0.9474247 0.43159658 3.6943002 4.5968738 -5.1618667 3.7850873 0.47376454 0.5471194 2.0184026 -1.1503356 4.2595406 7.9739704 4.4400234 0.4320981 -1.7048274
locations -0.18693417 -0.7646188 1.0812819 3.0522585 5.240468 -4.705297 4.9127655 1.0239347 1.367366 1.8363403 -0.49028432 4.495099 7.2160516 4.690199 1.2815366 -2.6468368
campus -2.2741833 -2.1669445 3.8790045 3.2961488 3.2816482 -3.783833 5.297113 2.135311 2.4521968 1.13051 0.16109335 2.4103138 4.540062 5.0590825 -1.6527821 -0.26510924
computer-science-underguidance -3.318746 -3.2171452 3.820412 4.493997 1.7311176 -0.69544894 4.8429976 3.2282476 -0.6105722 2.1542554 0.4568485 -3.8021333 -2.5429313 -0.70094454 -0.5194101 -0.5845184
thesis-development-experience -3.429283 -3.2772613 3.3700662 4.587171 1.6751895 -0.8638468 4.9699965 3.5229943 -1.217479 1.9029295 0.16584551 -2.9186714 -3.7737024 -1.1398523 0.1460365 -1.1933926
written-thesis -3.9961014 -3.1983957 2.6347075 3.6055372 2.7840412 -1.3220788 4.6741405 3.3562877 -2.0723538 1.3182034 -0.50714606 -1.5792071 -5.4339933 -2.451608 0.43695372 -2.2149222
paper-preparation -4.248327 -3.233966 1.0690314 1.7215518 3.4168665 -2.9438984 4.905407 3.96918 -1.9843733 0.99568 -0.2660874 1.073749 -5.7271347 -3.137916 0.53889966 -2.9852514
oral-presentation -4.308392 -2.8018548 0.55760646 0.19410643 3.1632545 -4.235566 5.533513 4.9557753 -1.7895043 0.5282071 0.6669281 3.01807 -5.2110753 -3.7703176 0.94168174 -2.4920802
literature-search -3.1468523 -3.7469645 -0.7789087 -0.31287554 2.030985 -4.769287 5.41437 5.5663786 -1.5786923 1.144337 0.5735443 4.4735875 -4.3547077 -2.0039873 -0.39225852 -3.1179767
faculty-member -2.8946133 -4.2906694 -1.3801402 0.47795454 0.94733095 -4.3951397 5.664246 5.7596526 -1.7214104 1.8025458 0.6802425 5.563686 -3.012871 -0.55174875 -1.980673 -4.0031157
completion -1.7389511 -4.9287286 -2.373943 2.8718295 0.30009067 -4.082031 6.219831 4.4401746 -1.7980251 2.3001087 0.11000552 4.9148655 -0.73129946 3.2419703 -3.1488168 -3.916764
normal-course-offerings -2.7458282 -0.34951237 6.255684 -0.9754704 3.4858422 -3.7941344 1.4434272 3.2071555 -0.1874117 -3.6462286 -0.8221937 -1.122043 1.9044273 -2.7361574 -0.08085776 1.1669861
individual-study -3.1522357 -0.3816794 5.859667 -2.1086366 5.1637173 -3.9908473 1.1681265 3.1682634 0.8370877 -3.442805 -0.83957815 -1.0820934 2.4927328 -3.3583398 0.0593123 0.633881
subject -2.5176086 -1.3560915 7.286547 -0.74047154 4.8153005 -4.1517653 1.6439961 2.8793035 1.6715922 -1.8638566 -1.0314996 -1.2036161 2.3355477 -2.8938172 0.13853614 0.095232844
reading -1.106435 -2.2637525 7.7151732 0.60233593 4.330523 -3.6079133 2.675853 3.0006287 2.1482286 -0.75019056 -0.80337065 -1.1437103 2.526419 -2.692497 0.2352898 0.08552696
covered -1.0173433 -3.1239667 7.1167903 1.5333314 4.185613 -3.1182725 3.4460375 2.7086217 2.3527339 0.4797628 -1.2126571 -1.459046 2.265269 -2.5172007 0.11758481 0.108696915
significant-project-requiring-advanced-knowledge -3.0939336 1.7822243 5.6472096 -0.6353579 1.8959211 -2.4540958 1.7647271 2.3074353 -2.7405915 -4.7386413 -0.64966923 -2.8152 -0.84109765 0.27901956 1.253868 1.0285361
project-topics-vary -3.581898 2.6288686 5.86692 -0.7996225 2.3024926 -2.0533562 1.6426227 1.7222105 -2.9516027 -5.3887434 -0.5026587 -2.7586117 -1.2865252 0.38628545 2.110414 0.82418156
student-teams-work -3.733776 2.625038 6.3607755 0.24488984 2.0093956 -2.2678857 1.4974935 1.259223 -3.2249863 -5.193311 -0.28273648 -2.2492764 -2.0987575 0.48943597 2.5950582 0.2346956
cs-principles -3.3849492 2.894238 6.6058545 1.3747408 2.0982 -2.3145993 2.263368 0.39097497 -3.692518 -4.789323 -0.43515646 -1.6604297 -2.5098083 0.60719144 3.6412458 -0.7953742
cs-faculty -2.792871 2.6884649 5.6694884 1.8239578 1.9523727 -2.1912813 2.4011676 -0.3194616 -3.860877 -4.3912215 -0.775524 -1.0726041 -2.4509785 0.15421875 3.8168807 -1.0097308
complete -1.8317136 1.8351786 4.3564897 2.5386965 2.0028563 -1.3211505 2.5115077 -0.112909034 -3.4751372 -3.842721 -0.40962628 -0.0007428831 -1.7349995 -0.14415306 3.3351088 -1.4509268
discrete-mathematical-structures-frequently-encountered 1.4883783 0.03737322 0.23129977 2.3813086 1.7434679 -2.882996 -3.2621105 0.34512162 -4.0941825 2.0914013 -3.2828753 0.12882671 1.8997432 -2.5176473 -0.78365034 1.2537684
boolean-algebra 3.1916142 0.61793965 0.62124574 2.4909482 2.30103 -2.8741353 -3.5198026 0.47766358 -6.754008 3.1009161 -4.331893 1.0163422 -0.29023778 -3.822378 -1.6145831 2.3012512
sets 4.997622 1.826314 0.7303718 1.7385802 1.5662525 -2.0471237 -1.9920962 0.28077275 -7.1295247 2.6092381 -3.4169922 1.9460082 -0.9953543 -3.3042073 -0.5722564 3.932909
relations 5.9055886 1.9875948 -0.4013138 1.7358425 0.8137001 -1.3988373 -1.0119108 -0.041722436 -6.8115234 2.3956366 -2.9021723 2.3949728 -0.4543779 -1.7290297 0.16511461 4.8272724
recursion 5.8998795 2.2992744 -1.2458588 1.5663217 0.5156559 -0.19447789 0.0281399 -0.16516583 -6.718325 2.1688344 -2.3713138 3.004674 -0.8743967 -0.52193034 0.46106067 4.889446
propositions 5.8362494 2.6580894 -1.861203 1.3066094 0.31885338 1.1757027 0.80734706 0.049883965 -6.985118 2.0397987 -2.4623632 3.1396344 -1.873647 1.191082 1.140097 5.069885
induction 5.5363603 2.7230978 -3.6596715 0.80456305 0.2180087 1.9020472 1.2148241 -0.15690202 -6.556132 2.9113328 -2.1424813 3.583155 -1.6595794 1.7804054 1.2589793 5.1897845
structural-induction 2.5386205 3.7475293 -4.440184 -0.82437664 0.29786292 3.0762854 0.3021827 0.22032529 -6.043679 3.9098754 -2.6460848 2.1418839 -2.475448 4.46847 1.5422467 2.4798775
proving-termination 1.20925 3.6189234 -4.248663 -1.0932033 0.6900027 3.1565704 0.009603084 1.1420026 -5.6081166 4.456098 -2.4261277 1.7558557 -2.682691 4.3658624 1.4873738 2.2693608
predicate-calculus 0.1744485 3.7458951 -3.9285479 -1.1305612 1.2657855 3.207499 -0.96548635 1.2909288 -5.540191 4.5702686 -2.191291 1.2140616 -2.9530478 4.099789 0.6110772 1.3277555
invariant-assertions -1.1561466 3.1880214 -3.0067255 -1.5707989 1.5944618 3.229553 -2.410621 1.6484823 -5.661957 4.838966 -2.7938933 -0.1545385 -3.4659421 3.081322 -0.77812225 -0.2849219
hoare-axiomatics -2.1080518 2.3346286 -1.4619023 -1.6827047 2.5113828 3.8494773 -4.5508685 2.4204612 -5.8124695 4.5601153 -3.3469646 -0.5193827 -3.6781433 1.9169337 -2.1131258 -2.3896825
founded-orderings -2.125337 1.9468079 -0.56096435 -1.0752369 3.1652749 4.221308 -4.8657937 2.5172415 -5.3267083 4.143621 -2.9249384 -1.2519771 -2.9852867 2.638785 -3.595044 -2.689412
formal-methods -1.9457405 1.4677038 0.2729574 0.067452796 4.168458 4.492943 -4.825911 2.5937088 -4.833387 3.572496 -2.3112583 -1.4903705 -2.227938 3.7770283 -4.650601 -2.663145
demonstrating-correctness -1.6844265 1.2823539 0.8088708 0.577627 5.4186635 3.8934157 -4.8161545 2.1234736 -4.142256 2.5995014 -1.621362 -1.4947232 -1.3097104 4.004296 -5.770694 -2.0164742
computational-induction 0.512848 -0.104193024 1.3956082 1.0315349 6.9576745 2.5553036 -5.3809614 1.3528522 -2.9548013 1.224333 -0.7734196 -2.340696 -0.88271445 4.5977097 -5.7981677 -0.4692391
programs 2.3001332 -0.85829 1.6559305 0.37123904 7.6996307 0.67233324 -5.8823447 1.1039431 -1.7324067 0.8498668 0.19393004 -3.2910388 -1.4232684 4.394194 -3.7892838 1.1823883
properties 2.6508403 -0.817985 2.4204707 -0.93309337 7.5340214 -0.89287704 -5.670563 1.3218919 -0.4870823 2.155525 0.8306824 -3.7649236 -2.8783057 3.501876 -1.4744496 2.593451
also-provides-solid-preparation 2.1034753 -1.3608302 3.4459507 -1.435536 6.28808 -2.0345857 -5.9514084 1.6394777 -0.15015246 2.7710779 0.38591602 -4.001562 -4.757915 1.654618 0.10921261 2.893239
related-areas-wanting 1.5766248 -1.583313 4.376064 -1.2404715 5.516922 -1.9346832 -6.0818877 1.7932032 -0.21932505 3.5643146 -0.2680605 -4.310133 -5.166281 -0.025082603 0.23395625 3.0794687
assume-prior-study 0.04404057 -0.4694488 5.080806 -0.6811588 4.712824 -1.7596067 -5.3132906 2.1853838 -0.49500778 4.3915467 -0.036283743 -4.091959 -4.6356964 -0.60199326 0.49154523 2.3532577
applicable-discrete-mathematics -1.0545844 0.09431444 5.8122697 -0.09092624 4.3110604 -1.5062213 -4.700028 2.1350057 -0.95178443 5.1758113 -0.5419937 -3.9962244 -4.469015 -1.0329914 0.23546118 1.9382305
advanced-combinatorics-courses -2.4746892 1.360304 6.1944513 0.20189217 4.1627784 -0.9865263 -3.990116 1.5655103 -1.0832751 5.5133867 -0.84652656 -3.167894 -4.152892 -1.9213207 0.06492621 1.7533163
various-courses -3.4196622 2.4460015 5.4144297 1.2682613 4.4320903 -1.8024961 -3.5377738 1.0952694 -1.8153512 5.7610245 -1.9386386 -1.8478762 -2.1946726 -2.6011286 -0.32322815 1.9766606
semester-background -2.7429051 2.7730713 5.422414 1.77526 3.7168977 -2.3542454 -3.8431752 0.7407217 -2.110334 5.622002 -2.4968674 -1.9127856 0.001688691 -2.4812977 -0.006740509 1.9085346
moves-quickly -2.5710812 2.8545072 4.9954348 2.122558 3.7279568 -2.164163 -4.032698 0.57432145 -2.2969773 5.2598763 -2.9030752 -1.6691267 0.6665773 -2.6804833 0.35361236 1.6956165
level-introduction -2.2576985 2.671303 4.2876797 2.7086363 3.7615051 -1.8315398 -4.0706897 0.23452356 -2.412867 5.264184 -3.6832905 -0.857092 1.8346632 -2.2678318 0.5645011 1.7880548
good-one -2.033938 2.4492183 3.7451365 3.3662076 3.4903061 -2.1148605 -4.604459 -0.14063968 -2.6031787 4.561757 -4.141841 0.29719254 2.7367704 -2.0043342 0.68802303 1.6057618
graduate-students -1.064661 1.8850969 3.0131197 3.6138957 3.7674756 -1.9109129 -5.86339 0.29460523 -3.0548117 2.9332738 -5.4244866 2.0758886 3.6349986 -0.25321648 1.3134592 1.4725137
fundamental-ideas -0.44172922 1.7376311 3.4580555 3.1635509 3.625128 -0.56220526 -5.9231305 0.5484077 -2.8263438 2.858756 -5.7536554 2.2439945 2.7153347 0.8847829 1.7185819 1.5927774
mathematics 0.1859167 1.6436174 3.067952 2.865971 3.624467 -0.7100149 -5.4173975 1.5263383 -3.482784 1.9627376 -6.087571 3.0815558 1.7512766 2.0299401 2.3398736 1.4896489
combinatorics 1.2546015 1.3533797 3.3796065 2.229634 3.8828282 -0.6448995 -4.974008 1.8991135 -3.3552725 0.90453255 -5.504648 2.1591673 0.8416114 4.041006 2.1748772 2.1287222
graduate 2.3909392 0.81089324 3.9466972 1.3872768 3.4407995 0.14410833 -4.615658 2.3989804 -2.7450461 0.28552166 -5.1484313 1.7222654 0.02034998 5.453471 2.5996096 2.216659
fundamental 2.9228728 -0.003882852 4.627033 1.1755702 4.1493673 1.6679802 -3.9605794 2.7683623 -2.1008546 -0.26791698 -4.6172304 0.88141674 -1.4753461 6.625126 2.8243108 2.934117
results 3.974648 0.027319094 4.3633847 1.3278638 4.3781533 1.5373236 -3.5523794 3.1059203 -2.0998201 -0.820367 -3.9528852 0.51011777 -0.7856394 7.099944 2.1515806 4.2213964
main-topics-include-trees 5.704553 -1.3871543 4.42681 1.147532 3.6562824 3.2424855 -2.324841 3.4797094 -1.2796078 -1.5520967 -3.12079 -1.3470125 1.1404809 5.4128594 1.4225124 5.651996
algorithmic-graph-theory-may 4.862567 -1.1490453 4.365124 1.2321943 3.3577025 3.6783247 -2.0134547 3.3959165 -1.2496351 -1.1504254 -2.8273847 -1.3923898 1.9141626 3.9609828 0.809826 5.2520704
basic-graph-theory 3.9803057 -1.1263422 4.453068 1.8049331 2.9660208 4.036868 -1.3607357 2.8937624 -0.94338816 -1.099611 -3.070532 -1.1696382 2.9136648 3.1991827 0.40506592 5.371025
extremal-graph-theory 2.8187451 -0.96810734 4.70681 2.5930407 2.3302577 4.66227 -1.1867214 2.2551436 -0.6710059 -0.4289741 -3.4446208 -0.5289904 3.835766 1.5405066 -0.43856803 5.0197854
advanced-graduate-course 1.1632102 -0.8066558 4.9000154 3.558796 2.0646572 5.374069 -1.1165797 1.5323184 -0.63425505 0.2643821 -3.5154614 0.407761 4.2740993 -0.05538525 -2.022078 4.4973173
extremal-problems -0.47330517 0.1665599 5.058099 4.344535 1.6512179 5.7130733 -1.0211964 1.4817787 -1.7246145 0.7455717 -3.3229978 1.5757877 3.7566588 -0.6422439 -2.8692815 4.0293007
prior-study -1.0519888 0.71748835 5.2548165 4.6303825 1.7831905 5.308712 -0.6473894 1.1730536 -1.7483523 1.1343023 -2.92727 1.639152 3.9514406 -0.70042527 -3.689045 3.214737
prior-courses -1.5669019 1.1442169 4.6930404 5.2536526 1.787591 5.013775 -0.19454229 1.2355012 -2.2754421 1.7003565 -2.613462 1.7968593 4.209449 -0.7216875 -3.8756366 2.7065833
perfect-graphs -1.5353742 2.0473137 3.2795925 4.9175234 1.9712452 4.350447 0.50450003 0.6912595 -3.323198 2.785652 -2.268908 1.3261964 4.0337386 -0.6342209 -4.5169487 1.1386847
math-580 -1.0320195 2.322696 1.8721002 4.4277935 1.8551589 4.5097823 0.8460536 1.2192307 -4.414598 3.5725374 -2.2460206 1.3272815 3.9687428 -0.5314372 -4.309503 0.18698128
math-412 -0.618406 2.9878087 0.60933244 4.315492 2.1243186 3.8912501 1.2799948 1.2583728 -5.401968 4.3986206 -2.0153556 0.5531951 4.2178154 -0.10821813 -4.629514 -0.29701003
fundamental-results -0.64037067 3.0050046 -0.65940833 3.8071532 2.4669375 3.7278621 1.6453208 1.6883147 -6.029973 5.2810616 -2.201028 0.41156203 3.796975 -0.3924827 -4.444115 -0.70137066
adequate-preparation -0.7983252 3.529484 -1.469563 3.310217 2.416554 3.4121246 1.6311415 1.5922635 -6.215348 5.561627 -1.9291451 -0.0027504503 3.8295696 -0.37764743 -3.9356513 -1.2190279
needed -1.7514664 3.5659328 -3.023246 2.2971675 2.494806 2.5969253 0.6885449 2.3659048 -6.0246334 6.520294 -1.8357755 -0.35235843 3.740432 -0.7985875 -2.1026516 -0.9517176
matching -2.4137478 3.567284 -3.0887198 1.9126538 1.8919655 2.2682555 -0.1297322 2.6502163 -5.4592757 6.6268864 -2.1168249 -0.43008894 4.0976086 -1.4715793 -0.8943618 -0.956957
familiar -3.377575 3.2218084 -3.4990773 1.4889423 1.8432984 1.7039295 -0.8186939 2.7994835 -5.0210214 6.7101974 -2.28215 -0.2875923 4.0223217 -1.8226224 -0.5655621 -0.74010545
factors -4.3966 2.7293577 -2.746368 1.4833897 1.7996446 1.6425921 -1.6234589 2.8383024 -4.150329 6.9099674 -2.3156624 0.12208685 3.4869177 -2.5987122 -0.4880969 -0.36765596
expected -6.1648326 2.2754705 -2.736192 1.4342657 1.3588686 0.9256848 -2.3581824 2.6548696 -3.036817 6.569175 -2.181618 0.43828726 2.8092089 -3.2883358 0.07741951 0.35040233
discussed -6.9877744 1.4498265 -1.556718 2.3887594 0.24717024 0.15416518 -3.5175354 1.5916772 -1.8530815 6.5931897 -1.5965878 2.1813583 0.35383737 -3.5432081 0.18409082 1.3423436
derived -6.7126036 1.1436529 -1.4192014 2.3808985 -0.2521914 -0.22340356 -3.777148 0.8637147 -1.5290613 6.9445205 -1.0827632 2.478961 -0.93564713 -3.3824384 0.028417652 1.3158108
colorings -5.9116435 0.80927724 -1.4558302 2.9335356 -1.0735611 0.067663155 -3.3083866 -0.2103062 -0.9629373 7.1054716 -0.296629 2.9493423 -1.6797743 -3.2113469 -0.09273053 1.67631
randomized-complexity-classes -5.1460896 0.64981914 -0.9551842 3.055821 -1.6765156 0.2072124 -3.0553427 -0.668392 -1.1140963 7.237272 0.14639913 2.943404 -2.5329337 -3.2259464 0.016173564 1.555946
random-walks -2.4658473 0.60447633 -0.38796422 3.302343 -1.7707397 1.2707556 -1.1240029 -1.7990491 -1.3341451 8.492719 1.7734045 2.8491423 -4.2726545 -3.1206439 -0.44976586 1.308917
probabilistic-method -1.0966203 0.2989921 -0.8485071 2.642465 -1.7735745 1.4094529 -0.80508006 -2.0206206 -1.465774 8.961404 2.0274992 1.4210832 -4.8924527 -3.0177794 0.028609514 1.4164339
hoeffding-bounds -0.07349357 0.1762696 -0.7831033 2.5294278 -1.788661 1.231753 -0.90061617 -2.3255234 -1.0984975 9.271827 3.0232866 -0.39496788 -4.961532 -3.0091865 0.3243946 1.8000643
geometric-problems 0.55286103 0.3725141 -0.74971825 1.7822804 -1.521993 0.9958726 -0.38233864 -2.2286627 -0.87661105 9.461359 3.631376 -1.1988313 -4.424533 -3.225788 0.44129658 2.1120856
dimension-reduction 1.5925281 0.8772847 -1.1170206 1.342434 -0.2663639 0.71867716 -1.076004 -2.6670094 -1.5184398 9.484086 3.4516776 -2.4485722 -4.238664 -3.2181294 0.24065529 1.9381591
concentration-inequalities 2.5019577 1.677887 -1.16898 0.94703704 0.7639712 0.7517224 -1.7306148 -3.3515422 -2.0047758 9.0953245 3.0994358 -3.2345424 -3.529558 -2.4344141 0.6087081 1.1618761
sorting 3.0258856 2.7385247 -1.2917658 0.4904981 3.15317 0.07000746 -2.8607116 -4.43796 -2.0173435 8.497585 1.9070044 -3.840938 -2.3392465 -0.41066313 1.4455401 0.16922316
searching 3.7649221 3.2373989 -1.7174075 0.85261047 3.8302953 0.3232102 -2.8244407 -4.542367 -2.3942494 7.6290298 1.6791265 -3.1483898 -1.4246644 0.38425168 2.0853767 1.1525458
pseudorandomness 4.710136 3.2249792 -2.3100092 0.9215771 4.132304 0.28273776 -2.2338934 -4.7274275 -1.3608384 5.721191 0.22853269 -0.5979224 1.1659534 3.1134183 2.5625458 2.6630561
martingales 4.539326 2.8667743 -2.3453646 1.4152409 4.8582535 0.4562229 -2.1311946 -5.3113723 -0.46274248 5.297617 -1.0536953 1.1569791 2.2335856 4.48148 2.5058322 3.0251734
inequality 4.5688124 2.1031606 -2.6081982 2.3207452 5.2580295 0.9407407 -2.0076985 -4.9925947 -0.3491053 4.479253 -2.045584 2.5371883 2.9332328 5.35247 2.5935688 3.5369065
entropy 3.060377 -0.48831692 -0.49079186 3.6004705 3.4865448 2.6050534 -1.0660397 -4.1284404 2.6200056 2.836004 -2.1476438 3.6911104 1.0705293 6.977641 2.5278583 6.214284
derandomization 1.5574888 -2.2126336 0.098960504 2.8691719 2.1058788 3.2508566 -0.2132006 -1.3340738 3.1899545 3.6592112 -3.1830099 4.033901 0.16564679 8.082399 1.8568412 5.367815
chernoff 1.1459898 -3.2494957 0.5173858 2.9636226 1.0404967 3.4440496 0.24719122 -0.12078802 3.246267 4.5835176 -3.306194 3.2320995 -0.73087066 8.6106205 0.80356973 4.1385655
azuma -0.029656924 -4.0465946 2.5205743 2.7381842 -0.31690133 5.098248 1.1743457 2.9461405 2.1379635 5.9396734 -3.1403003 1.4935704 -2.1112335 7.238243 -0.978321 0.8431485
mathematical-programming-methods-including-linear -0.09447686 -3.2054133 1.8941975 3.0134113 -1.9108255 5.4458227 2.3125973 3.3405473 0.46859133 7.0337815 -2.81869 1.5050683 -1.6022856 5.018114 -1.6340488 0.15202382
local-search-methods -0.49974823 -2.0138488 1.754455 3.1041975 -1.9595385 5.1111884 3.316856 3.7380877 -0.46939412 7.741412 -2.3637218 1.5551095 -0.63710904 3.2268128 -1.4262439 -0.026393
approximation-algorithm-design -1.2671139 -1.6181871 0.6027696 3.5288641 -2.710251 4.8256917 3.8530073 3.6155999 -1.0096524 7.915909 -2.0986183 2.0290606 -0.14087987 1.528329 -1.5763288 -0.012310605
definite-programming -1.8001934 -0.45777446 2.4041815 3.6082788 -2.276495 4.4001966 4.392063 2.9985778 -0.61656564 7.2155647 -0.8808986 2.518266 -0.16109817 0.42302778 -0.9853277 1.6293976
hard-problems -2.246139 1.6153371 1.2082217 3.414923 -2.5917099 3.848096 4.0618615 3.477077 -1.0093327 5.87695 1.5741653 0.40598404 1.8277836 -2.576431 2.6196244 5.650521
constraint-satisfaction -2.0683544 1.4710815 0.5335193 3.0823975 -2.0420556 3.214421 4.101428 3.2836213 -0.2643485 5.7334704 1.9579356 -0.18565212 2.5825038 -2.8056195 3.2301793 6.6877174
advanced-techniques -3.0180047 1.4869231 -0.507543 2.5410082 -1.3224216 1.4666437 2.317628 3.6831298 -0.5429723 4.7116203 3.694586 -0.3429284 1.131226 -3.0211878 3.5507312 7.529362
combinatorial-algorithms -3.940217 1.49293 -1.3937602 2.3598206 -0.599014 -0.12283453 -0.15096842 3.8876722 -1.0197719 2.761238 4.9033494 -0.02146274 -0.20594291 -2.8795445 3.851428 7.7532783
scheduling -2.252451 1.5282747 -2.2287135 0.8588528 1.1534353 -1.2486174 -5.0810347 5.559558 -2.3428717 -0.032418087 6.53 0.79674715 -1.1884433 -1.4636619 5.526801 6.517554
packing 0.38122085 1.5153239 -3.0925896 0.17103408 1.4475297 -1.5727444 -4.3644924 5.70845 -2.8507895 0.06788049 6.532926 0.89547646 -1.2499578 1.3452632 5.397214 5.63192
relativized-computational-complexity 4.524668 2.5654159 -0.67818266 -1.5074972 0.348621 6.297319 0.9235101 4.1100245 -1.185464 4.6214266 1.2372328 0.7339329 2.8553476 4.1328278 5.8360643 1.3922248
complexity-classes-rp 3.4361224 3.285395 0.48054028 -1.5977632 0.15604915 6.24677 1.1565497 3.2203672 -0.66034275 5.5323844 1.0242537 1.0237911 2.1521003 4.1385746 5.5492396 1.1909032
complexity-classes-np 2.2834766 4.058529 1.2481722 -1.7843941 -0.092841774 7.0939417 -0.057166286 2.1951969 -0.37650076 5.5625257 1.0747155 2.3147821 1.2223978 2.7605495 4.633805 0.9699999
space-hierarchy-theorems 1.0133711 4.924108 1.8078907 -2.7311442 -0.23153871 7.1303315 -2.1884742 1.2551538 -0.6159334 5.557513 1.1451968 2.2868145 0.7267861 1.6265076 3.7454722 0.31322238
parallel-complexity -0.11643676 5.1386847 2.1456947 -2.7449567 -0.14977822 7.0408974 -3.8636818 0.38231978 -0.97913367 5.0674143 1.1163526 2.7310188 -0.57751083 0.20449434 2.987202 -0.515424
circuit-complexity 0.11199364 5.1522455 1.3322508 -2.7642906 -0.24261783 6.5355797 -4.8191366 -0.49561164 -1.7109909 4.304229 1.6646538 3.041908 -1.377174 -0.1760936 1.8379391 0.45975226
space-trade -0.25506184 5.3550243 1.0441982 -1.8672624 0.35072762 5.912507 -4.9056745 -1.3817692 -2.085941 3.7609334 2.0810513 3.1136296 -1.9747416 -0.22864316 1.2825254 0.59210205
time-hierarchy -0.31485754 3.705529 -0.5162736 -0.86474055 1.4794854 4.653554 -4.962864 -4.0305886 -1.0126213 3.2889388 3.5630195 3.9814897 -4.694243 1.0127676 -1.450547 2.00411
tape-compression 0.03175241 2.377984 -0.7159666 -1.1897544 1.797267 3.983319 -5.2898245 -4.6410956 0.087193824 3.4124467 3.2636783 4.557997 -5.343108 1.0619878 -1.9221463 2.5512595
complete-problems 0.30645376 1.6818641 -0.31692266 -1.4129848 2.3085577 3.3596373 -5.284731 -4.6835275 0.93365073 3.5753372 3.127147 4.7997627 -6.0570326 2.0205398 -2.1442232 2.958476
blum-axioms 0.33463916 0.86504865 -0.41008186 -1.8184139 2.7357888 2.9183295 -5.087397 -4.551726 2.0461533 4.1883564 2.7723405 4.6189146 -6.1445465 2.3571603 -2.4075265 3.145553
rnc 0.78645265 -0.687596 2.872606 -3.5266178 4.901468 1.2759771 -2.2726052 0.08246933 3.6524923 6.7585883 1.318076 3.1288872 -3.3883522 0.30607814 -3.3491368 2.3579338
rl 1.0345412 0.11649658 3.7536025 -3.3599505 5.580971 1.0802065 -1.2967188 1.2167739 2.9874215 6.7342863 1.2948456 2.8018036 -1.7557948 0.0042630634 -2.706922 1.4142557
randomness 1.2524025 0.048446126 4.181459 -3.3360786 5.3863697 1.0540117 -1.0279067 3.1874428 2.1379566 6.5073633 1.1761181 1.7229482 -0.043664575 -0.7655246 -3.0071912 0.8011057
pspace 2.468909 -0.13270614 5.1879106 -2.58398 5.570245 1.0160162 -0.51887035 4.9598684 0.48163927 6.234111 0.6348843 0.8580217 1.0436198 -1.6238501 -2.7274756 -0.43026912
polynomial 2.463581 -0.528688 4.504157 -1.4294977 5.360869 1.3091601 0.39009845 6.077362 -0.8736837 6.0168514 0.54872096 -0.21313702 1.6842654 -2.038534 -3.1798372 -1.0042224
p 3.3555639 -1.3402643 4.459724 -0.7591549 4.1892834 1.9017471 0.36654776 6.3624034 -1.5848018 5.758739 0.8149959 -0.5639114 1.5097237 -2.3033295 -3.4243696 -0.9024062
offs 4.1785464 -1.8521682 3.879468 -0.26484412 2.777057 2.4250462 0.35572335 6.766097 -2.4067903 4.9916153 1.143531 -1.4114957 1.0761967 -2.5314295 -2.9048276 -1.4251336
nl 4.5653324 -2.1054149 3.9613254 0.102256805 1.0867217 3.4306374 0.023767177 6.255434 -2.8217554 4.162801 0.44959137 -1.8878493 0.10522162 -2.1956468 -1.6693543 -0.970363
nc 4.545859 -2.3186662 4.0705395 0.109481275 0.33683366 4.06212 0.050390333 5.4759192 -2.6903112 4.0924606 -0.18883081 -2.1381974 -0.8034994 -2.3064988 -1.5260831 -0.5170309
l 4.488 -2.127669 4.315071 -0.37042508 -0.4656352 4.668443 0.133191 4.7778997 -2.4069366 3.6961732 -0.99377346 -2.3861392 -1.190309 -2.2861776 -0.8876835 -0.37049678
determinism 4.169272 -1.6670892 4.5482497 -0.42825478 -0.7610201 5.0055165 -0.12513538 3.6570618 -2.3295832 3.784725 -1.4807899 -2.2350168 -1.9566767 -2.3283343 -0.8663952 0.1433992
bpp 3.4810495 -1.0736526 5.498934 -0.86522776 -0.60594434 5.6934657 0.06651337 2.4396188 -1.3746325 3.968821 -2.428421 -2.3237212 -2.4218452 -2.6540391 -0.24363613 0.9856573
alternation 2.4911718 -0.064884745 5.8543496 -1.000524 -0.4698944 6.4515786 -0.30927974 0.7390968 -1.1367531 4.2419343 -3.185294 -1.844544 -3.1107945 -2.9267442 -0.019900868 1.5775162
algorithm-design-including-recursive-algorithms 2.1810672 0.14204867 5.8465605 -1.1902106 -0.02760738 6.1987796 -0.20865105 0.04827894 -0.90236515 4.233622 -3.6007533 -2.152125 -3.1069102 -2.8742168 -0.11548159 1.9735994
computation-including-finite-automata 1.8721834 1.3603369 5.192662 -1.7004039 -0.027798679 6.2870307 -1.1312755 -1.1841567 -1.0130965 3.9168243 -3.1458519 -1.4926832 -3.1708531 -3.200285 -0.33164784 1.9335661
computation-arising 1.1652839 2.5976675 4.24093 -2.0550056 0.17983773 5.9742556 -1.8834267 -2.205495 -1.5307443 3.6538115 -2.7584856 -0.97779375 -3.1033032 -3.4069722 -0.78136533 2.5389738
greedy-algorithms 0.85735446 3.5125709 3.2562065 -2.15487 -0.060416996 5.970614 -2.7863846 -3.1678088 -1.5994238 3.5472806 -2.2072585 -0.45065776 -2.3538606 -3.6025343 -0.53798217 2.830013
graph-algorithms 0.32665992 3.8333943 2.1534538 -2.445163 0.087590195 5.7559977 -3.2732928 -2.8955553 -2.0892427 3.2658784 -2.2137794 -0.19063346 -2.3388212 -3.8258522 -0.084405065 3.313261
conquer-algorithms 0.21293932 3.9942806 1.7614758 -2.2801535 -0.23515625 4.7729793 -4.7748566 -2.8927164 -2.4496639 1.7223033 -1.7037218 0.056116525 -1.5677536 -3.9807715 -0.20290051 3.935243
theoretic-constraints 0.48884448 3.2512865 1.8277333 -1.7075076 0.33121312 3.7191145 -6.7242413 -1.8911872 -2.6431038 -0.33798125 -0.5762379 0.7940682 -1.0981147 -4.3486514 0.046717618 5.0618825
major-paradigms 0.6867235 2.589045 1.1149718 -0.73656094 0.058116246 3.137286 -6.7568526 -0.65241545 -3.1564794 -0.3395618 -0.17636906 0.32488942 -0.10614439 -4.7978997 0.49844638 5.9979596
fundamental-notions 0.49711248 1.8870028 0.6925817 0.10641235 -0.4199186 2.3818994 -6.6304173 -0.052221287 -2.8067904 -0.5402161 0.32030973 -0.34738758 0.6037263 -4.7115564 1.1741667 6.805979
dynamic-programming 1.0430605 -0.4470368 0.561443 1.3439822 -0.85903895 1.756055 -6.1974597 2.5131154 -2.7035074 -0.5799498 -0.30355474 -0.9611669 1.5940354 -4.270994 2.098936 7.181805
algorithm 1.0765624 -1.756279 -0.11056287 1.4965049 -1.5357207 1.3933184 -5.728163 3.8600128 -2.0766935 -0.018052597 -0.3618264 -1.7091141 2.2084765 -3.6946309 3.364801 7.5283904
undecidability 0.428442 -2.9689207 -2.1467679 1.5531789 -1.6218888 1.1542411 -5.213898 5.4990993 -1.7150582 0.84743434 -0.12995592 -1.2608755 2.1898966 -2.4422095 3.8646731 6.3378553
reductions 0.5229411 -3.3134072 -1.9965761 1.5290768 -2.1028492 1.7783815 -4.836452 6.8108587 -1.8011723 1.7587094 -0.088571444 -0.22963239 1.9424344 -1.6073034 4.22735 5.1075945
limitations -0.044538893 -4.7098904 -3.1742926 1.7688861 -3.210441 2.1274576 -3.3619905 6.746248 -1.4449257 3.7284927 -1.3241309 1.528203 0.51706237 2.2165952 1.2129335 2.0753682
divide 0.159916 -4.8269267 -2.3530433 1.8510485 -2.8706813 2.9605663 -3.6797829 6.6718874 -1.2041701 3.4202857 -1.0006336 3.1692374 -0.18528014 2.6709208 -0.034781873 1.3028814
completeness -0.41400215 -4.842577 -3.0512028 2.168813 -2.2114668 4.011417 -3.6699069 5.374707 -1.5948782 3.8086686 -0.9401004 3.3207436 -0.9234786 2.7981174 -2.3126972 0.35739118
resolution-theorem-proving-strategies -1.5845068 -4.577123 -3.3043935 2.6781516 -2.1133687 5.5065546 -2.9126651 3.6233912 -1.8709476 4.0522 -0.9958805 3.1368644 -1.5016011 1.7894908 -5.268648 0.019701151
hybrid-inference-systems -2.0476644 -3.5301254 -2.888761 2.4314413 -1.7700715 5.9636903 -2.574103 3.3329005 -1.8771828 3.8307445 -0.34811985 3.5138805 -1.2760639 1.1726502 -5.586632 0.57314885
rewrite-systems -2.6562898 -2.6685817 -2.1156096 1.899967 -1.6076834 6.339947 -2.1373672 2.6921062 -1.8022667 3.5150568 -0.22034955 3.1239655 -1.4435872 0.79596937 -6.4168086 0.9834318
unification-theory -3.235484 -2.20251 -1.8377068 1.2574487 -1.0134888 6.4357204 -1.9495313 2.6126938 -1.6501359 3.1923327 -0.20204382 2.608011 -1.7365452 -0.09267657 -7.0461435 2.1844518
special-relations -3.8811703 -0.8810785 -0.5486802 0.4553092 -0.9577932 6.231027 -2.69792 2.8391006 -2.020534 2.5114543 0.059045956 2.2472188 -1.9044423 -1.1611749 -6.5550714 3.049448
program-derivation -4.415846 0.14918923 0.4023796 -1.1092434 -0.21382119 5.8658304 -3.1632767 3.079209 -2.2516613 1.5236682 -0.07750853 1.5878316 -2.7924755 -2.510348 -6.026065 4.6231985
mathematical-induction -4.4326706 -0.090379566 0.28257555 -1.6975387 0.07921922 4.433798 -2.596937 3.125274 -2.1517227 1.8947428 -1.5966742 1.1808896 -3.501841 -2.3519185 -5.3603497 5.2221384
formal-deduction -4.2354217 -0.2408872 0.49480078 -2.2755089 0.53037494 3.6449316 -2.1554673 3.7359645 -1.7121986 2.486633 -2.1201234 1.6520299 -4.279867 -1.9329162 -4.3682604 5.814261
equational-reasoning -3.9331343 0.84822494 0.18927166 -3.366855 1.0325462 2.1630757 -2.1048899 3.674812 -1.617309 2.4233973 -2.794662 0.98854494 -2.9824915 -1.0664977 -3.704047 6.0605154
aided-methods -2.8992772 1.6203843 -0.63690954 -4.955621 2.9989212 0.7159688 -1.9072927 4.4538546 -1.6572905 2.6866646 -3.8707125 -0.27871633 -0.66654927 -0.22304301 -2.0984933 5.811588
selected -0.5639117 1.0224178 -1.5256366 -5.03659 3.6003442 0.32773015 -1.4557794 4.105416 -1.9074036 4.0154104 -5.649679 -1.388392 2.0057743 -0.06157371 -1.7200159 4.7865405
logic 1.4903502 0.60927415 -2.1241622 -4.848433 3.819132 0.5593502 -1.1031022 3.3440082 -1.6035224 5.0840592 -5.78306 -1.781665 3.7070706 -0.31498054 -1.7378482 3.1773427
areas 3.0757592 0.024148636 -2.3014026 -4.0620217 3.8061178 1.9307239 -1.7786869 2.5184705 -1.9529256 5.1291347 -4.4466767 -1.79806 4.50138 -1.5843725 -2.670159 1.8779328
vector-space-retrieval-model 3.2097433 -0.3639184 -2.005973 -3.2867796 3.7245524 2.7100725 -1.8688298 1.647078 -1.6903907 5.112607 -4.0781794 -1.5718068 4.10806 -2.020991 -3.3606942 1.1717695
major-recent-developments 3.52919 -1.292413 -2.298874 -2.9060473 3.143738 3.4043188 -1.6110071 1.6291299 -1.2933552 5.5376496 -3.2302775 -1.1259562 3.6246624 -2.4903061 -3.718207 1.1337204
including-historical-milestones 4.297348 -2.3563652 -2.0645027 -1.6587656 2.7185576 4.093995 -1.6876832 -0.2712959 -0.7787243 5.7616796 -2.1435905 -0.6722914 1.8883537 -3.3374047 -4.5822773 1.4184719
information-retrieval-systems 3.9450607 -1.8427533 -1.220308 -1.2114342 2.8767362 4.032637 -2.5891876 -1.417519 -0.5149065 5.0609407 -1.3634596 -0.9579432 1.9171396 -3.0225968 -5.346771 2.0185862
probabilistic-topic-models 4.3125997 -1.9238182 -1.038134 -0.38527295 3.1707854 4.051094 -3.1104105 -2.2950575 -0.49460283 4.349201 -0.9408778 -0.7191673 1.850559 -3.284885 -5.5764875 2.6819239
probabilistic-retrieval-models 4.773625 -1.7404362 -0.64302254 0.53337467 3.0409563 4.2155943 -3.0334613 -3.0056105 -0.7265061 3.7414465 -0.23281687 -1.0041142 2.1441793 -3.5933473 -5.1172867 3.5668073
information-retrieval-research 4.1552143 -1.2221656 -0.33853483 1.4232473 2.8518238 2.9568162 -3.4429038 -3.9753006 -0.6479253 3.758897 0.4782954 -2.3038473 0.8896999 -3.229396 -4.536376 4.496073
text-analytics 1.1144855 -0.51366097 -1.6043357 2.956113 1.9377214 0.3873955 -5.2132087 -5.663841 0.28384766 5.124008 1.5607367 -5.684411 -0.48775268 -0.15181111 -1.5428253 6.6254354
evaluation-methodology 0.18024819 -1.2339445 -1.2042952 4.282392 -0.13013227 0.44472414 -4.484927 -4.1197314 -0.2832489 4.9394307 0.6710659 -6.3460417 -0.6333327 0.6664312 -0.87619513 6.355331
rank-algorithms -1.3132674 -1.9982065 -1.6239436 5.922488 -1.4745984 0.0045982683 -3.8528597 -1.3649557 -1.0258026 6.2786846 0.33293518 -7.738507 -0.7273988 2.366982 0.44383797 6.5402346
learning -1.4004782 -3.1433394 0.3706197 6.7650385 -1.3809335 -2.732717 -1.7114085 4.1266627 -3.110359 4.922277 0.5129344 -5.7141137 -0.29394004 1.6078647 -1.2015347 5.899822
support-vector-machines -0.16691011 -3.858623 1.6228185 5.514744 0.68931067 -3.5631437 0.101176046 5.5401216 -2.8869574 3.560187 0.038522314 -3.36836 0.33104792 -0.027468424 -2.6763132 6.7658577
1-quadratic-forms 0.9194126 -3.429993 2.3832874 4.3982973 2.4361665 -3.3148823 0.97759324 5.298868 -2.7404778 3.6892488 0.23306194 -1.8787562 -0.26939225 -1.5379517 -4.2388067 6.71077
hidden-markov-models 0.65698797 -3.0812373 2.68037 4.2999396 4.6461096 -3.6584697 0.9507405 3.5524883 -1.951539 3.018655 0.6588475 -0.35639262 -0.7073085 -1.5716778 -4.6690674 6.614021
augmented-lagrangian-method 0.35586822 -1.5584232 1.9938071 4.0775104 5.455927 -2.8782625 1.3147404 2.2788067 -1.8396046 3.5125256 0.46622026 0.5655731 0.25542682 -1.9985316 -4.4966283 6.8201137
markov-random 0.7900993 -1.1279268 2.3968215 4.6769185 5.1635966 -1.5551931 1.7321419 0.5388958 -1.3381191 3.6707683 -0.22497751 1.268167 0.5306922 -1.8793948 -4.4560485 6.244346
specialized-algorithms 1.1022815 -0.4821706 2.8325303 4.2930965 4.4552145 -0.26431525 2.4190505 -1.1393888 -0.4629517 4.2171016 -0.39498156 2.6226351 0.9631904 -2.2133904 -4.2834334 6.002474
scale-algorithms 1.7819482 -0.2302827 3.2708836 4.6290417 3.9442809 -0.038940985 1.8737502 -2.477021 -0.30856946 4.2197666 -0.45815656 3.1302838 0.59185255 -2.084858 -3.6030178 5.6734576
point-methods 2.3792255 -0.48839003 3.4387069 4.755228 2.8352404 0.042197656 1.36633 -2.9750326 0.105847806 4.6682043 -0.5585026 3.772825 0.5894288 -1.8690904 -3.2996871 5.2839513
particular-emphasis 3.0196927 -1.1218413 3.3118844 4.5151544 1.7973235 0.43115154 -0.03628926 -3.3933566 0.51915956 4.6975236 -0.7013329 4.4058266 0.40132093 -2.0407543 -3.0620213 5.017474
fields-solutions 3.5920084 -1.7684307 2.5915632 3.625049 -0.33702332 1.1853517 -1.5094017 -3.0238965 0.4018464 5.3678536 -2.1630788 5.250563 0.19950297 -2.1940897 -1.965557 4.069107
effective-approximations 3.215989 -2.2585375 1.2872685 2.5725453 -1.2962428 0.9581631 -1.9485741 -2.3696768 0.52494776 5.919326 -2.9029753 5.614855 0.56470084 -2.7734292 -1.5600393 3.429334
dynamics-programming 2.6779225 -2.6206217 0.31739637 1.6512336 -2.0447266 0.68662465 -2.5954452 -1.6776221 0.26455766 5.858482 -3.6854455 5.81242 0.31812385 -3.575995 -1.2231249 3.3059697
dual-methods 2.3227556 -2.5292149 -0.67173594 0.69847274 -2.285903 1.1767443 -3.1599722 -0.830475 0.037696738 6.2432632 -3.8713343 5.994445 0.9943275 -3.799174 -1.0490544 2.8785555
discrete-optimization 1.1053935 -1.7547014 -1.3709153 -0.8723859 -1.225688 0.4458283 -3.1882493 -0.18073088 0.45205083 6.024501 -3.631182 6.3312726 1.8070515 -4.6258907 -0.77963233 2.8667178
based-learning -0.49058196 0.114495516 -1.94073 -2.9404683 0.4260307 0.33079156 -3.4773533 0.31486264 1.4929687 5.4234395 -1.7515467 6.599988 2.7143836 -5.3415937 -0.2108889 4.0897017
motion-problems -0.61376536 0.3607202 -1.7958372 -3.3694203 1.0225278 0.28135157 -3.8277764 0.2192877 2.0391934 5.0914936 -0.50491756 6.373161 2.3927448 -5.0486655 -0.34035265 4.9782915
method -0.8445006 0.6906517 -1.6446744 -3.2940986 1.518535 0.64436895 -3.5807633 0.25525218 2.3852682 4.380883 0.51162434 6.148985 2.2087438 -5.1220756 0.31287253 5.3107266
variants -0.30659497 0.41068476 -0.28316864 -3.1651137 2.3062732 0.9244091 -3.6837366 0.66201806 3.273859 3.3915682 3.1578014 6.426081 0.9910279 -3.915715 -0.07362119 5.9920235
smo 0.5782074 0.22049688 0.044224087 -2.010147 3.0810556 0.72085905 -3.012837 1.781617 1.9420581 2.9502923 4.913747 6.6022515 -0.46175802 -2.7645621 -1.2841729 5.044443
primal 1.1438112 0.14419456 0.5827296 -1.4544095 3.4629824 0.63703775 -2.3252168 2.4331958 0.40332013 2.303238 4.698035 6.467775 -1.3241614 -2.323331 -2.2338922 3.9369268
newton 2.3064194 -0.18312962 0.57317656 0.828276 2.9412804 0.41611663 -1.601347 2.9988422 -2.7337167 2.7726746 4.5639896 6.206351 -2.358275 -1.985366 -3.6514108 1.2775202
max 2.091205 0.4513275 0.4136624 1.2583693 3.5067377 0.30505812 -1.1721091 3.160135 -4.073354 2.6965213 3.7572706 6.084892 -2.672093 -1.8124686 -3.7251842 0.9892851
large 2.1988826 0.47768116 -0.08014502 2.2148688 3.3567553 0.24341635 -0.92907375 3.0208194 -5.2959237 3.2375753 3.1952422 5.528949 -2.4038255 -2.045649 -3.7866323 -0.27909243
interior 2.5630634 0.31218806 -0.42085162 2.487812 3.371337 0.12755328 -1.5051621 2.7007358 -5.5598035 3.4856668 3.0863705 5.0920444 -2.6330678 -1.7653719 -3.9288397 -0.6331126
gradient 2.8700519 -0.19352904 -1.0844128 2.8909729 2.442267 0.4043131 -2.3034234 1.8941886 -5.6853256 4.392224 2.8159943 4.4337516 -2.2924283 -1.1020547 -3.5243192 -2.2746158
flows 3.4907084 -0.51010805 -1.1744479 3.7304535 2.2364836 0.546378 -2.6356936 1.4896765 -5.435828 5.8577814 1.6711054 3.712014 -1.7991285 -1.0428699 -2.840893 -2.7944498
examples 3.2960525 -0.7363655 -1.8540024 3.3572114 1.5818996 -0.21883072 -3.2855709 1.2265782 -4.6507277 5.7421503 1.6224595 3.9332037 -1.6017609 0.35905018 -1.6395886 -3.1702166
cuts 2.8824162 -0.7717583 -2.828309 2.888463 1.7113518 -0.9626614 -3.6350896 1.1484276 -4.289693 6.181018 0.9216701 3.332972 -2.0377822 1.4850286 -0.033150088 -2.9197383
cut 2.586477 -0.9644486 -3.0617487 3.3703747 1.3318883 -1.3383367 -3.9159675 0.5370268 -3.7597582 6.1990757 0.106352456 3.8359668 -2.1431055 2.4945421 1.3703194 -2.9687233
applied 1.1634802 -0.80403346 -3.1820123 3.3219852 0.6104338 -1.4170309 -4.268489 0.32154244 -2.6505396 6.7130213 -0.4259828 3.8775387 -3.011875 3.3227212 3.2007234 -2.0095286
0 -1.3558455 0.39644063 -2.5286202 3.537496 -0.06558433 -0.94546 -3.2729154 -0.41269225 -1.8389374 6.3849726 -0.42139196 4.1753707 -3.7617395 3.5238001 4.078962 -0.07151144
dynamic-data-structures -2.249115 1.3894066 -2.0596888 3.624847 -0.30142125 -0.6782453 -1.9203248 -0.41337794 -1.604451 6.624737 0.20092146 4.770048 -3.2432957 3.1277862 3.9557295 1.2206537
network-flow -3.1526499 2.2071054 -0.56794584 3.0566442 -0.044171717 0.15550184 0.6087594 -0.51965994 -0.5736639 6.1942434 0.60331076 5.1177707 -3.7974625 2.6290054 3.2720785 2.843061
linear-programming -3.8980937 2.2568495 0.35348794 2.5855665 0.17701703 0.21994549 1.8590609 -0.073954314 -0.58905214 6.5127068 -0.6034921 4.8919635 -3.6583235 2.0059352 2.1699526 3.5890448
analysis-techniques -3.794639 0.8269257 0.15269084 0.70615035 1.9535238 0.56274426 2.3696313 -0.32146627 1.212442 5.9970746 -3.9794405 4.4944186 -2.821068 2.7632318 0.9883923 4.539414
amortized-analysis -3.2946777 0.4955983 -0.5176678 0.13608569 3.0749686 0.44331378 2.0374706 -0.35274813 1.370374 5.5727654 -4.990503 4.7936378 -2.0922813 3.03154 0.5885608 4.742342
among-others -2.7121892 -0.9147632 -1.3177835 -0.22342916 3.0282695 0.711995 1.5395296 -0.042942572 1.8310229 5.708069 -6.0207086 4.158716 -1.7950422 3.1753569 0.116 5.2685285
oriented-programming-language 2.2141168 -1.1685826 -1.0923644 0.32484397 -2.0230107 2.691864 1.7989259 -3.5351305 0.22289202 -0.5806711 -2.2047749 0.84494394 -0.51085496 -1.6482406 4.180739 1.8255901
elementary-data-structures 3.0182016 -1.5361943 -1.3009517 0.6528463 -2.4597533 3.2391503 2.489556 -4.7385907 0.24106202 -0.96817887 -2.679255 0.92728597 -0.15577663 -1.7455606 5.0471344 2.5593297
elementary-analysis 4.0403075 -2.1885307 -1.1804264 0.12831452 -2.9903607 3.611901 1.8786861 -4.875659 0.51547635 -1.4196166 -2.6616669 1.5321283 0.031262416 -2.450711 5.7845583 2.2575753
data-abstractions 4.7539887 -2.2544608 -0.44375676 -0.2703608 -3.9678054 3.4480302 1.6838509 -4.173041 0.25171295 -1.9318346 -2.087064 1.9449794 0.36731675 -2.8319693 6.1281605 1.9446687
implementation-using 4.9348235 -2.2708557 0.5848855 -0.46298954 -4.2236624 3.5608382 1.256809 -3.5427694 0.47786665 -2.0996528 -1.5662513 1.6941217 0.6069428 -3.2243786 6.1233826 1.3099052
computational-problems 5.2514806 -2.2027378 0.88633 -0.96046114 -4.8537474 3.0413496 0.9054433 -2.768267 0.21889098 -2.2460682 -0.9200624 1.8572508 1.0313177 -3.2950275 5.6484127 0.58931506
variety 5.522129 -2.2883618 1.5964816 -1.5855402 -5.2438283 2.2732806 0.7108076 -1.7985011 0.27571782 -2.1792989 -0.027058763 2.15229 1.4303515 -3.5906334 5.3915343 0.5370111
stacks 7.4310474 -2.3829663 2.199737 -3.4854903 -4.820818 1.6952095 2.1241567 -0.09404013 0.5708489 -0.56884146 1.5126387 3.6988902 1.4623235 -2.9652407 3.1416757 1.0637972
solutions 8.855093 -1.8910631 2.1827013 -3.8476586 -4.118708 2.565122 2.8755887 0.23144077 0.6592512 0.7532637 1.8828362 4.3902993 1.2968439 -2.1490328 2.5131524 2.070572
search 8.768075 -1.228047 0.14950569 -3.0623868 -4.0867243 2.237363 2.9971092 1.265042 -0.5548264 1.689736 2.1840312 3.3667617 1.220878 -1.6763196 3.0467532 4.0527086
queues 7.8581653 -0.7212771 -2.1349113 -2.88655 -4.234365 1.8613938 2.990228 2.1043506 -1.2479604 2.6996152 2.0630336 2.2470226 1.3886874 -1.0685179 3.9220445 5.7476563
lists 6.8070817 0.7284512 -4.5338883 -1.4960065 -3.7811146 -0.07423655 2.66971 0.9918967 -3.187338 2.72899 0.2969936 0.6041494 2.7859554 -0.5423845 3.6900878 7.5748267
group-projects 2.185459 2.3258092 1.4558464 -3.1482985 -0.92137724 -7.1338177 -1.0540321 -3.1069887 -1.5225877 3.0061703 -5.002878 -1.3407851 4.9311748 -1.3034555 3.5073824 2.3595176
sections 2.9202037 1.5205486 2.925713 -2.7826664 0.26503825 -6.060033 -1.1352509 -3.782307 -0.14403354 3.073292 -5.6561294 -0.6652524 4.7930183 -0.4040381 3.1718636 0.83675295
200 2.9579997 -1.7564929 4.030094 -2.702341 -1.8097711 -1.6314865 2.4844613 -5.5145144 1.256941 -3.7985802 -4.794857 -4.6658864 2.5199728 0.7470394 2.5335472 0.7286113
line-analytical-processing 2.8344615 -1.3156835 2.859595 -1.4485657 -1.3296487 -1.8584406 2.9562902 -5.648757 -0.10908593 -5.296631 -3.2124817 -3.5335495 1.8518465 -0.43632254 2.0626879 0.6573686
data-mining-concepts 2.1913881 -0.031745728 2.5875711 -2.450166 -0.22558543 -3.0218463 2.394573 -5.8374267 -1.0889747 -5.749587 -3.2946594 -2.6859941 1.0599669 -1.0725218 1.6475924 0.21505176
data-warehousing 2.896298 0.35299125 0.23140238 -4.02163 1.1093357 -5.5398583 2.6871831 -7.7376533 -3.344185 -5.027924 -2.6995559 -1.8955681 -0.7098992 -2.0790088 -1.6310391 -2.3856738
data-warehouse 4.4570546 -0.98190296 -2.3399818 -4.947583 0.065483615 -6.2984796 1.5000987 -7.0870905 -4.304954 -4.091128 -3.6359887 -2.259531 -1.5829469 -1.7011533 -1.1910771 -3.431781
olap 4.2948513 -6.536297 -7.548853 -4.07169 -1.4451898 -8.332685 1.9031576 -1.8575583 0.18816109 1.7326385 -2.7160323 1.2541466 -0.26046056 3.490478 0.28168604 -3.0783477
implementations 0.9583685 -5.4022803 -7.7000394 -4.3494477 -4.915163 -7.057365 1.0110854 -0.5614215 1.6627283 3.765329 -2.5176096 1.8516655 0.42243767 5.2108774 3.4848077 -1.5277218
relational-data-models 0.37408707 -1.35985 -3.1216176 -3.0622485 -3.3583767 -5.9540606 0.70179296 -1.7704918 1.9847847 4.901346 -0.9279701 5.0877304 -0.036268935 7.3749638 3.9070926 -1.779199
distributed-database-systems 0.46919993 0.8404463 -0.65970296 -1.5073804 -1.3462967 -4.8495593 3.0446877 -3.7725809 1.8706768 5.540858 0.28758132 5.639133 -0.7407341 6.6399193 3.3585103 -1.6694177
relationship-model 1.7070512 1.1683357 -0.39291045 -0.012299273 -1.6031326 -2.6309307 3.2163303 -5.6378164 1.2298115 4.6926064 1.1183412 4.64692 -1.3785022 6.617314 3.0627863 -1.6028311
normal-forms 2.7329667 1.3919134 0.21892425 0.4191999 -3.0452847 -0.6655015 3.9186122 -5.947822 0.56565225 3.9853973 2.5241003 2.7568376 -1.3332002 5.6987815 3.5386255 -2.271337
logical-organization 3.71897 0.7698084 1.2470968 0.2072353 -4.358669 0.68580955 5.7321143 -5.409885 0.6269391 2.9891226 4.7604465 0.6028568 -1.3453674 3.9584577 3.0342999 -1.7414215
functional-dependencies 3.8243763 -0.87605166 2.9531987 -0.20366058 -4.90171 0.62176543 6.266594 -4.9887156 2.059481 1.8274113 4.75258 -0.56075305 -0.43340677 2.980247 1.2993451 -0.5117793
concurrency-control 3.133355 -1.8246533 3.382992 -0.9124196 -5.7620134 -0.38723123 5.015455 -4.3705544 2.7943516 1.9254516 4.5778956 -1.5061759 -0.7569565 3.2351844 0.6440895 -0.22916178
optimization 0.9692119 -5.9313817 2.5299547 -2.3677974 -5.445211 -5.159384 4.1985903 -0.40151247 4.993111 2.6559796 3.9675686 -1.3035642 -0.9889658 0.95762646 -0.033515427 0.8959308
integrity 1.1405154 -6.56128 1.2500614 -2.2862132 -2.130814 -6.554788 3.968538 0.7405843 5.26746 3.8759441 2.5195363 0.015466181 -0.77855974 -0.790567 0.41061676 1.1581031
hierarchical 2.0322475 -5.8485537 0.056608 -1.3876988 1.3194685 -7.4162116 2.9662178 -0.14628813 3.8883262 4.2137184 -1.615699 2.275693 -0.74077713 0.49087882 0.9933751 1.1996498
entity 2.40263 -3.893371 -0.7750201 -1.1912861 3.2353845 -7.17267 3.4765096 -2.3903985 1.9638288 3.5703309 -4.4533587 3.8511298 -1.5514479 2.4247932 0.61933964 1.5336411
major-theoretical-paradigms 4.379359 -1.3327545 -2.7114697 -0.2893731 4.5460515 -3.2785156 3.7744572 -5.4211764 -1.3462328 2.3711655 -6.281511 1.9603401 -2.6005876 3.590532 0.29844323 2.105288
key-concepts-developed 4.337301 -0.3340895 -3.1841226 -0.23635565 3.6406226 -2.4751973 4.155192 -5.5437665 -1.8709558 2.3706362 -5.129329 2.8040273 -1.9010625 2.5904922 0.10880441 3.0866563
unsupervised-learning-approaches 3.6282406 0.15400353 -3.7665205 -0.5785158 2.033992 -1.5970782 4.582799 -6.006004 -2.049011 2.6415129 -4.7431235 3.2130709 -1.8897854 1.6830249 -0.36666718 3.059298
learning-linear-representations 3.7683747 0.33257702 -3.3465748 -1.0859693 0.7742933 -1.8908099 4.172364 -5.557605 -2.2929337 3.2729094 -3.8233526 4.1630397 -1.5528489 -0.64370894 -1.4644265 3.360121
adaptive-computer-systems 2.9748828 -0.024405435 -2.518038 -1.6311046 -1.1380163 -2.3107424 2.9869015 -5.586065 -1.6209489 3.51119 -3.8941622 4.018771 -1.1654838 -1.9249992 -2.2950063 3.855935
line-learning 2.132346 -0.8900322 -0.87349725 -2.4553246 -3.9261463 -3.1215851 0.7973145 -5.8103895 -0.60395586 4.7233844 -4.5403647 3.1901283 -0.64181423 -2.6935232 -2.7173507 3.112586
text-processing 1.3950953 -1.8121204 0.3356948 -3.0466092 -5.574206 -4.057225 0.94652206 -5.2082214 -0.8056889 2.4848697 -5.062184 1.8153212 -0.53147346 -3.5244696 -2.3244364 3.152607
several-supervised 1.3637133 -1.9014908 1.2294481 -2.7690232 -5.7794695 -4.399236 1.4776748 -5.2334466 -0.99350595 0.74112606 -4.784034 0.88733536 0.6097847 -4.392005 -2.2407198 3.0028086
natural-language 1.4685252 -3.0484843 0.4075781 -2.8145182 -6.6223655 -4.332812 0.5751686 -3.8953567 -1.1973237 -0.54968745 -4.9379697 -0.72856337 0.48602206 -3.5772748 -0.62610316 2.258941
dimensionality-reduction 2.3182683 -3.740202 -0.013497261 -3.3527176 -7.4586735 -4.0212264 0.11436797 -2.682654 -1.8415906 -1.6010612 -4.3524613 -1.9312212 -0.2341198 -3.1348338 0.4463401 0.9712498
basic-techniques 4.1046762 -5.111595 -0.8612082 -2.8869817 -6.798757 -3.638192 -1.8654594 -2.7107275 -1.0475892 -3.741875 -3.1083167 -2.4214013 -0.3367249 -1.3007452 3.226413 0.33535805
bayesian-methods 4.7124944 -5.104073 -1.0685524 -2.7446263 -6.1012855 -3.198038 -3.2765613 -1.6016515 -0.7585876 -3.750181 -2.3775153 -1.9352912 -0.19298646 -0.30255935 4.2862725 -0.15121973
kernels 6.198672 0.33615157 1.1794478 -1.6219798 -2.0259423 -1.647101 -6.1858473 -1.7954923 -0.4650629 -0.07281906 0.51472265 2.5162358 0.015494708 -0.31557423 7.897893 1.5962983
features 4.613332 2.0221732 0.8207562 -1.0374516 -1.7922827 -2.4414332 -5.7527146 -2.967905 -1.133884 1.3210757 0.7825239 3.4579854 -0.6432835 -0.057042375 7.9650755 1.3493048
decision 4.4049506 2.7426813 -0.3823424 -0.97961235 -2.2731564 -2.4272926 -4.5931993 -2.5128326 -2.629284 2.5411043 1.3514321 3.4234204 -1.5275494 0.24125947 7.1216555 0.5869126
probabilistic-),-text-categorization 0.9291965 3.6501293 -2.811803 -0.5180398 -4.7763996 -3.8173838 0.13937473 -3.072004 -4.002212 3.127704 1.8656329 4.004425 -0.99255264 -0.533063 5.2973223 -0.68328553
web-information-management 0.25115573 3.8883579 -2.1231878 -1.3533704 -5.4684587 -4.523609 1.624972 -2.275942 -3.8572428 2.9381702 2.3161993 3.757074 -0.12305876 -0.7945704 4.8909297 -0.7249944
g-.,-boolean -0.15540625 4.233607 -1.9547842 -2.123456 -5.3360167 -4.9700727 2.119992 -1.9039224 -3.6100874 2.8126047 3.108448 3.6727839 0.7711657 -0.79667985 3.404298 -0.4960664
based-information-systems 0.042295072 4.8821054 -1.4112262 -3.8761637 -5.029165 -5.1549344 3.482198 -1.9011062 -3.4462128 2.5225127 2.6694808 3.7228966 1.081995 -0.4386439 1.7784318 0.35877874
retrieval-system-design -0.00019923091 4.699939 1.1432273 -4.686467 -3.5792131 -3.573893 5.42315 -3.5936697 -0.918828 -0.1391954 3.4280035 3.2212715 2.6161013 -2.6151614 0.021664819 2.8129075
retrieval-models 0.7815503 3.7281413 2.3309984 -5.1075177 -1.3969725 -3.3471856 4.7356772 -5.1369076 1.0197239 -1.1793413 2.6069615 2.6928775 2.7439997 -2.3535492 0.037413705 3.3698683
text-filtering 0.91302353 3.1608377 2.9119334 -5.052553 0.097222544 -3.2090824 4.231883 -6.3372436 2.3079746 -1.8528599 1.3443674 2.9529889 3.0605443 -1.4234878 -0.9399325 4.072377
text-analysis 0.48567796 2.3435757 1.7582498 -4.7934346 1.3665149 -3.835246 2.2730012 -7.278209 3.3830001 -2.1180022 -1.328475 4.206845 2.760762 0.073461644 0.59261525 4.1572933
vector-space -0.5614947 0.13852373 -0.09555152 -3.585719 2.742154 -5.5979047 0.0064173862 -8.184696 4.605005 -3.5973966 -2.6615489 4.8522196 1.6589376 0.9003235 1.6774577 5.015008
information-system-design -0.74947643 0.27390987 -3.7904413 1.1022468 0.041886095 -6.3960233 1.0696133 -1.7835301 -0.21648952 5.5809474 0.94816715 3.3096707 0.45581907 -1.1120522 5.941774 -1.96933
information-integration -0.102776065 0.17172186 -4.2761917 2.272119 -0.7981361 -4.2408266 1.1005105 -3.9920046 -0.93866706 5.584156 -0.6446516 2.0152998 0.587556 -1.8917781 6.984486 -2.2285554
information-extraction -0.057136815 0.54415375 -4.948675 2.6678672 -0.8369407 -2.6926298 1.0165936 -5.0263705 -1.2941357 5.2387314 -1.2373929 0.99197 0.56781864 -1.1807101 7.231048 -2.03334
web-search 0.27495852 -0.06809486 -5.165786 1.790194 -1.2770604 -2.0385778 2.234597 -4.4825873 -1.2867731 5.705529 -2.0382872 -0.22298288 0.55017096 -0.5380126 6.37374 -2.0440493
unstructured-data 0.38945785 -0.2106249 -4.725605 1.7629294 -1.31487 -0.9097621 3.524497 -4.9853125 -0.524047 5.115721 -2.0530932 -0.8943976 1.9916629 -1.4897467 5.7164636 -1.645957
transaction-processing 1.0274678 -0.45761073 -2.9496906 1.9251994 -2.6453803 0.8166347 4.5250826 -5.64146 0.10480519 4.12347 -2.2992327 -2.0374029 2.864849 -2.173449 5.8706527 -0.9546107
structured-data 1.0028085 0.06878245 -2.0784152 1.2731799 -3.534946 1.4580841 4.158337 -5.656925 0.14131656 3.8647928 -1.8297728 -2.6407235 2.9437766 -1.2513752 5.5001802 -0.36029676
relational-roots 1.3641472 0.29748532 -1.0209203 0.59764206 -4.429631 2.0778158 3.9007666 -5.5451965 0.740772 3.2652142 -0.87704253 -3.1830893 2.802377 -0.50043535 5.443158 0.23445567
recent-developments 1.0945169 0.84151936 -0.36392197 0.16921134 -4.947906 2.4561543 4.232366 -5.5294905 1.0332615 2.7877336 0.19847849 -3.2560625 2.9363902 -0.37026128 5.5631657 1.1631368
query-processing 1.005837 1.4695976 0.008097286 -0.35437945 -5.030949 2.094454 3.2402067 -5.8014174 1.0447528 2.8719597 1.4488623 -4.2411876 2.4158933 -0.22815335 4.8385324 1.8510196
emerging-directions 0.22313626 2.5824394 1.0725832 -1.271725 -4.1149893 -0.6303657 0.9047154 -5.462821 2.0509224 4.112358 4.6580963 -4.268892 0.7334659 -0.12732081 3.6606266 4.8646708
data-management -0.44448972 3.2492032 2.1579506 -2.1080623 -4.261644 -2.3555174 0.11561062 -5.1484003 1.8187797 4.152665 5.3354344 -3.8243456 -1.1686755 0.124063715 3.3851013 5.9885683
data-indexing -0.47900796 3.2418742 2.2948163 -2.6181257 -4.067511 -3.8524199 -0.5025318 -4.858691 1.8633333 4.4602795 5.8893995 -3.4121728 -2.4601252 0.67201984 3.099204 6.40932
objects -0.74655664 1.2170029 2.8778698 -2.9406016 -1.2894043 -9.728128 1.8912668 0.6401339 1.1076387 4.301792 6.0342073 -0.4409993 -3.5319521 0.4220537 2.170122 6.132664
mining -0.9438654 0.98337024 2.4688134 -2.1466417 -0.7933345 -9.730606 2.7592714 1.5366211 1.1245927 4.020131 5.9634004 0.15315656 -1.9198961 0.003798824 2.0827105 6.2721853
extensibility 2.6276565 -1.6307346 3.0669518 -0.96955156 -0.28527158 -9.374351 7.337886 2.3102417 -0.8631961 1.8970219 3.13268 1.7954901 -0.24503736 -1.5184324 -0.19171183 2.7928958
benchmarks 3.495437 -2.2270167 3.1509442 -0.9477522 -1.2399696 -8.610946 7.7512174 1.8642361 -1.927989 1.0077065 1.7405679 1.5335358 -0.014390683 -2.028336 -0.9018831 1.759623
2 3.244036 -1.8385494 3.0629933 -0.085551605 -1.8917308 -7.7203298 7.131582 0.25099277 -2.6982367 -0.012143472 1.5083139 0.8178272 -0.16903125 -2.303212 -1.6128607 1.0610336
1 3.805948 -1.4043677 3.1227746 0.2460996 -2.2963266 -6.603807 7.146324 -0.9379478 -3.6202633 -1.2644105 1.113899 -0.07845261 -0.03959251 -3.2314174 -1.6061282 1.0914507
biomedical-data-mining 4.562714 -0.54310536 2.8287146 0.6602423 -1.9699186 -4.5545363 7.0863924 -3.0078444 -4.1822047 -1.6095396 0.79263854 -0.58164555 0.30218235 -4.208675 -1.8734183 0.34144917
stream-data 4.823243 1.033185 1.5843568 -0.26718357 -0.9769081 -2.6104255 5.8264456 -4.537806 -3.793255 -1.1736567 0.9949964 -0.53156793 1.3968952 -5.343658 -0.92514026 -0.1313632
predictive-mining 5.347467 1.4038076 1.1917443 -0.3762593 -0.38417107 -1.9656788 4.692923 -5.184185 -3.09659 -0.18201001 1.4547025 -1.4968239 1.8954761 -5.079177 -0.4762832 0.80489534
mining-frequent 5.5971193 1.9360034 0.7906566 -0.49379545 -0.16352132 -1.1384968 3.3822882 -5.847441 -2.8875496 -0.0005994661 1.543701 -1.7458072 2.1873689 -5.5013103 0.3703671 1.1185429
data-cleaning 5.8981123 2.3874557 0.69034004 -0.89871913 0.31270847 0.013696361 2.32503 -5.9205155 -2.4373238 0.9962441 1.5463036 -1.9686681 2.4395893 -6.1179886 0.73749137 2.2778041
structured-patterns 6.2828426 2.1404512 0.32922426 -1.2023876 0.8607549 0.6019459 1.2804372 -5.8587418 -1.5208013 2.2360237 1.3018657 -1.5296706 2.245387 -6.319177 1.829114 2.830028
outlier-analysis 5.451341 1.7303051 0.5297203 -3.1255965 3.0245612 0.9137723 -0.22825612 -5.665656 0.9504684 1.1384788 0.70221144 -0.58704805 1.9949338 -6.725884 3.0897343 3.980672
fraud-detection 5.6636314 0.47448337 1.8765287 -4.006183 3.1938512 0.10281192 -0.3571764 -5.6766396 2.2973914 -0.032806635 1.9696329 -1.1504648 0.41300154 -5.9998307 2.0289197 4.769794
advanced-course 6.2806635 -2.1165264 2.1028314 -4.522491 2.2125275 -0.08244877 -1.0060077 -4.0909214 2.913643 -0.9629593 2.5440614 -3.7951772 -0.095895134 -5.337465 1.33608 3.811775
web 7.1805162 -4.186166 1.663486 -3.7951257 1.810145 0.018985307 -0.9640659 -3.9847589 2.880089 -1.8480911 2.4071558 -5.761542 -0.51471704 -5.226916 1.2121471 2.5934398
sequential 2.8661585 -4.7826176 0.7416118 -3.4499383 -1.2406818 -3.703359 -2.184051 -3.5824912 2.0052302 -3.9945927 3.6109974 -6.7120013 -4.5088053 -3.8495398 2.5572743 2.487425
integration -1.0184307 -3.0386114 -1.1155807 1.5132781 -5.0218644 -5.1900682 -0.8039049 -2.1856089 -1.6102146 -1.4469632 3.0488706 -4.3620143 -5.8820577 -4.0615764 6.224557 2.9549103
descriptive -1.0001884 -1.997929 -2.1244311 2.2442641 -4.8859167 -3.8540468 0.28353396 -2.061536 -2.0794923 -0.816801 2.9707165 -3.125039 -4.219535 -5.1594872 6.8528786 2.691239
solving-computational-problems 0.0826782 0.21022417 5.253892 -2.4084342 0.030986616 1.047099 -2.4188385 2.8548229 -0.50559556 -2.141272 -2.205403 2.5923965 4.0789905 -0.39973134 1.0898857 -3.3752375
fundamental-techniques 2.7895057 1.1615301 5.1460676 -4.2701483 0.11451191 1.9223468 -4.1693087 4.402061 -0.8315298 -2.7872634 -0.6276251 4.3001766 4.411268 0.911172 3.2379766 -2.2864132
first-course 3.4918146 1.7188001 4.4611015 -4.1892686 0.795852 1.1898904 -3.8624966 4.340828 -1.2408879 -3.2498503 0.28080162 4.736139 2.7382896 2.4478903 3.876418 -1.5136827
deep-interest 3.4054377 2.2225204 3.544435 -4.3046436 1.3018022 0.6398259 -3.4354813 4.169907 -1.8889083 -3.604229 0.6216186 5.4374022 1.1591699 4.023512 4.0434995 -0.8718805
basic-concepts 3.3521783 2.5679576 2.6633127 -4.7137136 1.4490306 0.8516978 -3.4406092 4.0187 -2.0811713 -3.6472065 0.92054087 6.1105995 0.00095869804 4.567149 3.7694151 -0.5084013
intensive-programming-lab-intended 0.8473891 2.779636 -0.1819515 -7.442665 1.5049553 -0.60867584 -2.5756805 4.2709036 -2.2555482 -3.1241689 -1.5224532 3.4533527 0.7431362 5.611257 1.4078052 1.4240819
strengthen-skills 0.2813927 2.7294233 0.036714073 -7.770108 1.642555 -0.37873322 -2.630315 4.082415 -2.2285113 -3.0281951 -2.9153113 2.8842037 1.7164171 5.5564733 0.030835375 1.4293872
basic-language-design-principles -1.404797 2.8271396 0.79738903 -7.952727 2.3624718 0.6439529 -0.9882075 1.971426 -2.2962573 -3.0506442 -5.1705985 2.4322155 2.5538702 3.6797612 -3.8455935 0.4360632
abstract-data-types -0.6825893 2.57238 1.600767 -7.893603 2.0580635 1.1335543 -0.818538 1.3632902 -2.247011 -2.9413192 -4.6051526 1.787281 3.1183493 1.8706065 -4.8579516 0.33280993
type-systems 0.43755168 2.9945047 3.0976546 -7.4245334 1.7814971 1.2997667 -0.27652737 0.77748257 -2.1590655 -2.907729 -3.7711499 1.5559399 3.3060021 1.7910304 -5.1365547 -0.042745978
programming-languages 1.459583 2.4473288 5.061326 -7.0306244 0.64818615 2.4287271 1.2133387 0.031509258 -2.1892204 -3.6845124 -1.9711806 1.9318817 -0.10908615 1.8718277 -5.2437115 -0.5829017
oriented-languages 1.638249 1.948828 4.4993143 -6.870253 0.33350822 2.1466596 0.73715276 -0.2926184 -1.0918963 -3.4158287 -0.04508161 2.3527882 -1.9986676 1.0275314 -4.734021 1.186098
functional-languages 1.6371464 1.3162442 4.902676 -7.1279716 -0.31467906 1.1627259 -0.25101426 -0.7024312 0.18042473 -1.7624477 1.2160307 2.3692408 -3.3098526 0.6706374 -4.351923 1.8353984
lexing 2.6971645 -3.6650226 1.4408165 -4.054666 0.043977045 -0.8459202 3.6517677 4.1315246 4.9546366 0.053886198 4.2068987 7.687328 -1.018434 0.5154531 0.7877552 4.5046363
